1524 100
。 0.59908867 0.030385999 1.8680114 0.908552 -1.6747941 -0.8994467 -0.40319777 0.066459425 1.4266044 0.80734813 -1.07098 -1.0992516 -1.0431486 0.66250473 -0.47675866 0.38835874 -0.5191303 -0.98621374 1.0548706 -0.6316515 1.2622426 0.667432 1.4901494 1.1301429 1.8314807 0.6163305 -1.7115754 0.37377107 -0.32631326 -0.15641987 0.7243928 0.6717178 -0.74785936 0.8230587 0.9811668 0.5349722 0.2035575 -0.65438515 1.7309589 -0.16716668 -0.32177493 -0.29066372 -0.04972062 -0.53077173 0.71493655 -0.2310219 -0.14053765 -0.28084028 -0.4723931 0.7176335 0.037640348 -1.1378711 -0.33433414 1.15388 -1.2992523 0.7472443 -0.17168218 -0.18589352 -0.42832223 0.70896053 -1.1839457 -0.035506338 1.6995575 0.3045992 -1.003117 0.10688772 0.10525429 0.3987986 0.64913684 -0.3184323 0.26176825 -0.04321317 0.86394143 -0.46239102 -0.8082304 -0.52376366 0.0938546 -0.47222033 0.9504157 0.35519353 0.9120991 0.21102023 -0.033086605 0.21931086 -1.1133147 0.49018687 -0.583902 -0.7831892 -1.5588661 -0.054198194 -0.02298268 -0.8772384 0.5666549 0.17884555 -0.2582264 -0.6149622 0.05085249 -0.34521288 0.34982708 0.26292828
， 0.40990973 -0.24196565 1.9682093 0.09996537 -0.7729793 0.098166145 0.9904625 0.6664391 0.65087515 -0.44979507 -0.2887176 0.012417152 -0.78817844 -0.3599017 0.5206882 0.86273676 1.1928266 -0.84699136 -0.022277173 0.23245263 0.91251236 0.15738453 1.2298404 0.28642574 0.07401698 0.11406165 -1.0120953 0.4413194 -0.82582295 0.47831678 -0.45442963 -0.6381004 -1.0238307 -0.18599097 0.6580418 -0.016858611 0.27214667 -0.48694417 1.2217823 0.22867197 0.10112186 -0.35758168 -0.1744683 0.004256094 0.9155501 0.4753488 -1.1498756 -0.31139815 -0.7737663 0.07179181 -0.6786132 -0.54986674 0.20528118 0.18501423 -0.30283222 0.38048393 0.017772136 -0.52779096 0.28207368 0.57026875 -1.29489 -0.9033179 1.2702119 0.5697396 0.35949823 0.45760402 -0.20390593 0.22411916 0.4030084 -0.15485829 -0.58542216 -0.030599928 0.85490537 -0.29102203 0.010612911 0.47882235 -1.9887773 -1.5921515 1.1774663 0.37398303 1.152676 -0.27922678 -1.1392237 -0.17307825 -0.7580484 1.3821304 0.766122 -0.047666267 -1.0737145 0.435068 -0.3714867 -0.8532267 0.718758 -0.41918206 -0.98794633 -0.05295861 -0.45394042 -1.670426 0.045417156 0.85499555
未见 0.3610314 0.376771 -0.98259443 0.40646192 -0.9472196 -0.7201358 -0.88774234 0.15988086 0.6861759 0.016743327 -0.98765874 -0.5953419 -2.0813704 1.1409256 -0.19031823 -0.2869968 -1.2709137 -0.13328208 0.38854462 -0.7941853 0.92037773 0.7119567 1.7815733 -0.2178227 1.7929405 0.058335457 -0.70494133 0.8042168 0.19103628 0.67670274 0.5728392 0.8249983 -0.035907682 0.3019039 -0.6907717 -0.15686454 -1.0367064 1.4374429 -0.8982912 -0.57013804 0.41657946 -1.1917378 0.11296539 -0.49453592 -0.27454984 -0.9492822 -0.67762315 -0.32663855 1.5707499 2.154408 -0.14458807 -1.0928464 0.5702646 2.6993504 -1.2844574 0.60592884 -0.07116421 0.054418128 1.1048144 1.5212814 -1.5989873 -1.4773582 2.5434809 -0.31137502 -1.5213959 0.5756226 0.831708 1.9061443 -0.6719088 0.012628514 1.5122622 -1.0169308 -0.4578463 -0.3116645 -1.3282164 -1.8378259 -0.10183617 -1.3702112 -1.316962 -0.5157664 0.73289526 0.6372613 -1.1860944 -0.08600178 0.30629483 0.4356042 -0.8980253 0.8056111 -1.6829174 0.48027426 1.2265657 -1.197804 1.6935965 -0.4413721 0.7970043 -0.67990726 -0.46496603 -0.88436216 0.40267673 -0.5462837
双侧 0.3315047 0.7744661 0.8162225 -0.23036492 -1.3396629 -1.0061407 0.697479 2.0268538 0.5609853 0.27404794 -1.1589931 0.2188822 -1.9075506 -0.024306737 -0.3748051 1.4906497 0.3044206 -1.9467152 0.72894 -1.2132406 1.8963482 0.11441908 1.9277389 0.2563129 0.5098608 0.37993777 -1.8137281 0.32946265 -0.3156023 1.009282 0.21816413 -0.13054632 -0.03615363 0.5374885 0.12380974 1.256203 -1.0444809 -0.28867474 0.79661185 0.8067891 0.15155187 -1.2157909 -1.0157634 -1.2958144 -0.31397343 -0.6261656 -1.0375633 -0.40968567 1.3561705 1.0907408 -1.1054076 -1.333376 1.2601043 2.8671277 -0.99281394 -0.21844111 0.99755436 -1.3521426 0.8425899 1.3619894 -1.1706195 -0.8619414 0.5609359 -0.37922347 -0.5633289 -0.14951581 -0.4896007 0.88650256 0.99033284 1.4237436 0.1532977 -1.1955059 0.47846836 0.026608534 0.078791745 0.56076354 -0.83317 -1.1001668 0.3345839 -0.17357104 1.4260683 0.695151 -0.16254447 -0.37164813 -1.3486756 1.6867146 -0.0953564 0.7914731 -1.395809 -0.8825014 1.9144782 -1.6203171 0.15244195 -0.021754645 0.04496968 -0.68023723 1.9693042 0.27097777 -2.7392712 -1.3433452
影 -0.03168495 -0.31813627 1.7636609 -0.4967658 -1.2896786 0.4766261 -0.54859585 0.9762363 -0.099001884 0.6542541 -2.4182773 1.4236764 -0.18925038 -0.5308649 0.3469529 0.5155337 0.08558219 0.37101015 0.4419948 -0.19694345 0.78670543 -0.8683884 1.3783594 -0.088063784 1.931634 1.2217193 -1.1158091 0.25363243 -1.0222479 -0.78287673 0.32587737 -0.4015917 -2.399971 0.67377394 1.2444456 1.1076473 -0.3505938 -1.2552806 0.32763398 -0.76716816 -0.20604871 -0.7895277 -0.21566723 -0.5146401 0.8456395 0.2651827 -0.1050771 -1.7590783 0.36929023 -0.62584263 0.9739331 1.939742 -0.36296698 -1.1580495 -0.5302639 -0.4490542 -0.5167459 1.0862951 0.853273 -0.5374255 -0.39300513 -0.03283195 -0.43413895 0.75384617 1.0663372 0.1334179 -0.45882317 0.7140658 1.063824 1.3896365 0.36820975 0.36994737 0.8709205 1.1681687 1.7593765 0.35030907 0.7213332 -0.7411029 1.715619 1.5905885 1.6006114 0.52640575 -2.3121045 0.9341029 -0.36176446 2.5183737 2.1931717 -1.51125 -0.31984594 0.3377024 0.06501478 1.106104 0.8155641 -1.4381608 -0.40583146 0.096604295 -1.1247246 -2.5242727 0.4793542 1.1081378
钙化 -0.25090894 -0.7871759 1.9736711 2.0211911 -1.9012636 -3.1877265 -1.8206872 1.1125767 1.4166858 0.6912418 -1.3788589 0.95297885 0.52664876 0.08562618 0.76427907 -2.9722722 -0.71784097 2.0242639 -0.45283884 -0.48737752 0.45577794 1.6656266 -0.65023804 1.3802918 1.7455728 0.18605135 0.22197556 0.5523651 0.028787754 -1.1219386 1.4987034 -0.31517062 -1.4715146 0.17549358 0.075939715 -0.7868342 0.5175064 0.43618497 -0.4502507 -1.3313057 -0.12863263 0.5484604 -0.015494554 1.4794166 0.8503285 0.8249731 0.11222554 -0.47852698 -1.943263 -1.2927563 0.45082024 -1.2555237 -2.5387857 -0.1393714 -0.3689352 0.06306684 -1.9075637 2.5476065 -0.019146547 -1.8893149 -1.379768 0.34857634 0.044643424 0.56066024 -0.5199001 -1.114229 1.3014958 0.83844864 -0.89526975 -1.7114917 1.5874273 0.95605075 -0.2460743 -0.06182998 -0.29263395 -1.8150009 0.026872838 -0.7295143 1.497683 0.54359835 -0.10967436 1.6684592 0.24368523 2.222581 0.90606135 0.647062 0.3987474 0.5381927 -0.21264318 -0.78715676 -2.755961 -0.79076797 -0.97173357 -0.39768776 -0.35292867 1.7586089 0.54121816 -0.35587028 0.95253134 -0.34350014
腺体 -1.0755023 -0.4131299 0.981256 -0.076141514 -0.11837955 1.2487723 0.71749234 0.6297719 0.3298154 -0.16223243 -1.4972208 -0.49522972 0.31097934 0.28314027 -0.7265842 -0.18475717 0.062077653 -0.23950772 -0.8185226 0.23809847 1.9824467 1.1855528 0.7941015 1.122529 0.6426122 -0.29478118 -2.2747679 -0.14516759 -1.0756867 0.92649746 -0.78220797 -0.93098056 -2.5765555 0.5200837 0.037715163 2.313738 -0.018459162 -2.7620668 1.8263239 0.18806615 0.08962691 -1.51194 0.34862998 -0.797854 0.38884494 -1.8891788 0.06626055 -0.3808318 0.112272345 -0.97938347 -0.99584377 0.53683156 -0.9488961 0.7463943 -2.043393 0.77865994 1.9759645 -1.3230351 -0.5253932 2.0946476 -0.9253428 -1.2684513 3.451446 0.09481873 0.8021064 1.6427883 0.26513764 2.6341572 -1.4982903 1.2307545 -0.6189798 -0.9887864 -0.33217818 -0.1614959 -0.05200925 0.77864516 -1.8988814 -3.0193486 1.3917451 0.86776084 2.0324838 1.1091583 0.15204857 0.38426003 -2.3802152 1.4946338 -0.44495016 -0.40798876 -0.89749634 0.76554304 0.6836763 -1.2334175 0.5998888 0.2605288 -0.21457045 -0.6711676 -0.8994471 -2.4462814 -1.3870103 1.7897487
明显 -1.0454262 -0.5405437 0.22402105 0.79342574 -1.1174839 -1.900112 -0.76371604 0.0042789946 1.0268973 0.18892622 -0.81287515 -0.9908334 -2.7298455 -1.2060086 -2.0531251 0.3914969 0.5201787 -0.7979604 0.3881622 -2.0550673 1.6421584 1.0847645 -0.15896784 1.4855143 -0.32125372 -2.0403805 -0.48223388 -1.2608871 0.0877433 -0.5680478 1.0389701 -0.23657657 -1.6703801 0.89540017 -0.0011946874 2.1797156 -1.1900386 -0.6931252 0.4224743 1.1671672 -0.191443 -0.9970205 1.5426873 -1.3702027 -0.6715205 0.8500435 1.0501809 -0.15639244 -0.11834096 1.0940818 -0.097694986 -1.2510974 0.37663987 1.3967233 -0.21730372 0.18912895 -0.2773104 -1.5179011 1.1151516 0.5812347 -1.630888 -1.1609206 2.6085498 0.24147603 -1.6321422 0.5231169 -0.085910864 0.7494697 0.24262583 0.8502496 1.7400564 0.8559894 1.3025484 -1.357985 0.11432118 -0.61411256 -0.6449508 -0.5618435 0.80522376 -0.90208936 1.1577132 0.8755407 -1.287992 -1.7039108 0.12815963 -0.16121396 -2.238524 0.39807832 -2.8592398 -1.6078389 0.79291 0.5012302 0.31234336 0.9630046 0.6089493 -2.2769418 -0.4746837 0.97370136 -0.66721845 -1.0407063
及 0.39852324 0.10728264 0.76411414 -2.2249029 0.23137084 -0.14049216 1.6420578 -1.7803123 -0.21969399 -0.05794802 -0.1541654 -1.7283292 -1.4043977 2.0166976 -1.3982083 1.8817903 0.04963743 -1.3952587 -0.0054073716 -0.98723686 0.121844165 -1.0050299 0.30639812 0.38259333 1.2860619 -0.6287005 -2.006829 1.2853397 1.1483167 0.48969385 0.42401132 1.4835289 1.2161858 -0.84816676 -1.0176014 0.11238463 -1.4736713 0.64006287 0.5997818 -0.32246727 0.4290179 0.35328108 -1.4417549 -0.0597464 -0.61325955 0.07493864 0.6038555 -0.21948649 1.8619789 0.33500984 -0.4659168 -1.4044441 -0.0934494 1.413074 -2.450868 0.18814372 0.57602376 -0.497917 -0.7102697 1.3944942 -0.29455128 -0.28049812 1.2781856 0.91921747 -0.71463853 -1.0522374 0.0110040065 0.16380586 -0.38684282 1.7454978 0.12593089 -0.24004701 0.1469438 -1.7803559 0.27204213 -0.21971393 -0.5546327 0.20602848 1.1275953 -0.8617466 -0.21009049 1.3011874 -0.26639226 -0.3019122 -1.3348523 -0.99823207 -1.9417386 0.6742135 -0.22481032 -0.32476586 1.960744 -0.70403737 -0.8559383 -1.0672073 -0.34814137 -0.7876689 0.7902645 0.95902133 -1.3218827 -1.7592179
皮肤 0.026040783 -0.8541618 -0.005608405 -1.1249099 -0.14775246 -1.3277206 0.29416332 -0.8953706 0.9700417 -0.55394244 0.42754313 -2.625177 -1.4318376 0.89624333 -1.3575824 2.3230698 0.83048654 -1.7393014 -1.8261935 0.7533129 -0.32804993 -0.37356356 0.16909444 1.7131686 -0.96349055 0.49113625 -2.4786928 0.08547243 1.2543359 -0.08223093 -1.5614908 0.35607737 -0.34722528 0.8150086 0.24118955 0.44767898 -1.2437953 0.9782875 -0.904329 0.10724673 0.15016429 -0.863983 -0.93668807 -0.5373726 -0.523849 -1.3172227 -0.707907 0.5047993 0.79337484 -0.0035303792 -0.4622133 -0.18909566 1.4984194 2.336026 -1.3715044 0.47806272 -0.38929683 -1.3124644 0.4063862 0.9393736 -0.3363532 0.5064353 4.0778003 -1.2884231 -1.5013957 -2.003286 1.2606772 -0.7956839 0.8024202 -0.76343596 0.16493876 -0.5860748 -1.1664637 -0.8923476 -0.93602395 0.23588094 -0.59824675 -0.28684235 0.64098114 -0.14286324 -1.5400615 0.4162705 -0.37213966 -1.2300593 -1.2137506 -0.27356437 -2.03605 1.3885015 -1.6347133 -1.470859 2.9712982 -3.5318627 -1.2479146 -0.23338155 0.22318335 -0.43286344 -0.20247439 1.0297946 -2.4248955 -1.3996285
增厚 -1.4248667 0.019141931 -1.4225041 -0.72154987 -2.150699 -0.8355292 1.7832607 0.23257801 0.7050192 0.098569624 0.7374458 -0.9681881 -0.7933746 1.8250793 -2.0192509 1.6919353 -0.7856056 -0.7495195 -2.1407862 -2.1449363 -0.6263261 -1.1696252 0.53089494 1.9258215 0.6929066 0.16532078 -2.9810107 0.53288 0.035490453 0.4015934 -1.4492495 0.11759677 0.14665976 -0.5516367 -1.0708684 2.0155585 0.3852793 0.20913279 1.1416171 1.496616 -0.6268283 -0.458346 -0.7680933 -1.5896502 -1.4790812 -1.4811939 -1.6892624 -1.4441502 1.0920435 1.3644118 -0.09476206 -1.4461248 0.78394175 2.097439 -2.1591668 1.0046717 0.60838187 -2.888722 -1.486123 1.5563937 0.48274872 0.33422166 2.221464 -0.92998123 -2.0560343 -1.3004148 1.3775457 0.21295142 1.5660518 0.2788677 0.2899793 -0.6175813 -0.45861986 -0.9769629 0.36983922 -0.13829856 -0.75811386 -1.2182695 0.566752 -0.62237364 -0.16260803 0.070980296 0.87136245 -1.4607825 -2.8636937 1.5500948 -0.5510671 -0.43078694 -1.153861 -0.60749096 2.451888 -3.0753775 -0.98756075 0.2113004 1.5406355 -1.9700063 -0.5863702 0.8730823 -2.2498062 -0.8666898
乳腺 0.78159916 0.32252917 -1.0830433 -2.0943844 -1.2234415 -0.60288656 2.9739165 -0.1229989 1.0565805 -0.6053657 -0.34474623 -2.4531116 -1.5712641 1.1908205 -1.7171749 2.165721 0.2311898 -0.7890138 -1.4657446 -1.6557004 -0.58781266 -1.241149 0.23630849 1.0551106 0.4101579 0.3651826 -1.4959997 0.7755604 0.5067791 -0.19006106 -0.9692867 0.4808602 0.88019913 0.71649957 -0.5622187 -0.78874755 -0.8809037 1.2738652 0.2832594 0.49449497 -0.09410988 -0.56950486 0.022570034 -0.6771955 -0.9936242 0.014974934 0.4509037 -0.34291297 0.027860893 0.02814956 -0.56790334 -0.82659596 0.45684782 2.223584 -0.13302673 0.504147 -0.4534175 -2.5632813 0.36413032 0.71034276 -0.28901953 -0.25810787 4.2521214 -0.6642891 -2.343952 -0.80727136 2.5088062 -1.1283478 -0.31009904 -0.6681185 1.500718 -0.8962408 0.7679124 -1.580256 -2.062611 -1.0997989 -0.7979577 -0.9623046 -0.042203836 -1.4775339 -2.0921886 0.7942601 0.2023664 -1.134772 -1.1928926 0.811062 -1.847685 2.0834696 -0.6876605 -0.14891201 2.6986556 -1.0596184 -1.9103938 -0.06398459 0.07571489 -1.4746865 0.8720799 2.6279085 -2.0180242 -2.1400292
结构 -0.71827596 -0.4509884 -0.096660465 -2.4302115 -0.4211405 -0.87058026 0.7082235 0.6113269 0.44559354 -0.026711276 0.16002212 -0.57827747 -0.10575884 0.55691797 -0.95043087 2.0152638 0.0026224395 -2.686303 -2.095436 0.21838346 0.0056200256 0.30981112 0.827474 1.9419957 1.8346545 -0.31677732 -2.4722948 -0.53102064 -0.86702996 0.05426254 -0.7907846 1.1714107 -0.4521249 0.19439283 -1.2440794 -0.106565684 -0.88009965 -0.18841611 3.083017 2.5451775 0.29196897 -1.7765987 0.46721452 -1.7943116 -0.15002523 -0.9923039 -0.5171124 -1.2806954 0.14179444 2.1928246 -0.68899095 -0.63294595 0.5057468 2.7694628 -0.4846709 -0.39941034 0.13607378 -2.2609973 0.2080423 1.4024508 -1.6608188 -2.4667358 0.75058824 -0.68231684 0.84281814 0.15736298 0.3615591 1.2868888 1.0869167 1.5329541 -0.04030751 -1.3412929 1.5539441 -0.027248744 0.42068708 1.9763027 -0.80157655 -2.992862 1.0779657 1.5221583 1.2077076 0.4316556 -1.325599 -0.75894195 -1.0622838 2.0485075 0.06071218 1.3817769 -0.9832669 0.3794535 1.0215956 -3.2630954 -0.34060505 -0.04327044 -0.8663111 -3.2800329 -1.2412595 -0.71478355 -0.9164481 0.7206933
凹陷 0.4577821 -1.609929 -0.39699346 -1.3180791 -0.9503567 -1.1161667 1.2323451 0.72030824 1.2515258 -0.17437114 -0.4991476 -1.2932836 -1.8832526 1.0828009 -1.5337213 1.5363955 1.5922817 -0.62527525 -0.3841603 -1.49888 0.6584022 0.41567177 1.2982994 1.0631472 0.65617776 0.43004772 -3.2460518 0.4058153 -0.44529387 1.2943803 0.09117296 -0.40565053 -1.0030298 0.53110206 0.50390446 0.16742717 -0.38773322 -0.1761599 1.2145945 0.9636643 -0.95532715 -0.9881128 -1.0556715 -1.3860319 -0.27013487 -1.1839263 1.065604 -0.27310017 2.2344599 0.74108636 -2.1813512 -0.8180684 1.6112262 1.4276407 -0.5609536 1.0658957 2.4082022 -2.0739844 -1.4056697 2.5890412 0.4170506 -1.2180421 3.6645002 -1.0456107 -0.9052542 -0.96151453 0.5986529 0.9306768 1.1571703 0.93808323 0.9687658 -2.285151 1.7407017 -1.788028 1.0357608 0.011792737 0.1437136 -2.4872613 0.01342468 0.51761866 -0.02070959 0.35772747 0.35427842 -0.47074717 -2.6134422 0.97616935 1.0027503 1.3883169 -1.159549 1.1092294 2.552777 -3.283009 -0.64021325 0.4939543 -0.76406056 -2.6280103 0.43544656 0.32296157 -2.0830362 -0.71432984
乳头 -1.6380299 0.995033 -1.5205599 -2.175778 -0.20498113 -1.0340517 0.2853566 -0.7904422 -0.7965447 0.05862768 -0.6056582 -2.1339388 0.10423366 -0.4079123 -0.7386965 2.46739 0.50246507 -1.7838993 -0.10497149 -0.4874587 0.8903842 -0.39649254 0.32285058 0.87055135 0.32552698 1.2575577 -1.5025021 0.5879188 0.79125357 -0.67727315 -0.59960765 -0.6209895 0.5061626 -0.08764018 0.7449845 1.1565838 -1.8502362 0.17216678 1.4395927 1.7113024 -0.21788843 0.8746121 -1.3993274 -0.78720754 -0.073510274 -0.88739175 -0.25727245 -1.0251466 0.1041973 0.34832904 -0.03650179 -0.3642577 0.059888 2.0345697 -0.35693082 0.47337982 1.2682395 -1.543986 -0.6517439 2.4858253 -0.38243634 -1.2537665 3.026853 -1.936814 -1.8038961 -0.045413684 -0.13151507 1.0954906 0.568944 0.25653425 1.6329372 -1.3459268 -0.08137374 -0.691616 -1.2292095 1.1265196 -0.5752908 -1.5259742 0.47721666 0.35850745 -0.45252264 1.0129229 0.93960017 -1.5072477 -1.9471418 2.0545113 -0.36029023 -0.24155581 -1.613377 -0.5115244 2.8050995 -1.8779831 -0.3083361 1.0767535 1.198033 -1.2614164 1.630097 0.098425195 -1.2897136 -0.8373568
乳晕 -0.37145537 0.39355215 -0.56209093 -0.16995536 -0.9004814 -0.07000818 1.9996452 -1.2892103 -0.29411885 -0.95094186 0.21678327 -1.2489625 -0.15799522 -0.17571904 -0.30714244 0.95808387 0.830725 -2.1898794 -0.04164033 -0.39314118 -1.0463945 0.016984079 -0.13357843 2.0621881 0.12746635 0.3207575 -2.0929146 0.29205427 0.56932724 -0.63384354 -0.48046714 0.030495008 0.34454355 -0.15484159 0.088963464 0.8821452 -1.0871611 1.5130886 -0.014568907 1.2645266 -0.77057046 -0.5505803 -0.24973549 -0.24739638 -0.8349925 0.19789205 0.7549456 -0.34300494 2.419445 1.1527526 -1.7943516 -0.72351533 1.4166448 1.2472111 0.2442533 -0.40710935 -0.45935795 -2.5235233 0.69816643 1.0387084 -0.26986897 0.51655704 3.2222302 -0.60389 -1.3680677 -1.2165453 1.3938649 0.26388618 0.75796205 -0.38774306 0.25847012 -1.0694448 1.0439049 -1.0183935 -1.4322255 -0.0142770475 -1.012855 -1.1785396 1.6338295 0.19173712 -0.736532 -0.14789599 0.8637682 -0.17437722 -1.5699909 1.1191645 -1.1966077 -0.97905326 -2.2204237 0.52277243 2.9475293 -2.7781487 -0.13139401 0.49804664 -0.3221764 -1.415252 0.43221965 0.69619614 -2.2280757 -0.7015543
结节 0.59854823 -0.8199721 0.551515 -0.8791588 0.18979347 1.0431826 -1.1586212 0.72432154 -0.25877634 -0.2386805 -2.1709137 -0.59808195 0.56881815 -0.90860766 -0.64749205 0.08739646 0.17445609 1.328914 -1.0928849 -0.57808244 1.7334214 -0.3596571 1.7960337 1.2961068 0.43106073 0.21367791 -1.9010439 -0.21980695 0.60454047 0.7769072 0.58394784 -0.4262506 -0.9283774 -1.9069242 1.6405231 0.18074338 0.083675474 -2.15426 1.8047216 -0.63896906 -0.89217055 -1.6321299 -0.9498565 -0.49920568 1.838094 0.9078938 0.40366212 0.27763054 -0.2168814 -1.2280483 -0.9539365 0.084069595 -0.91161436 0.015626432 -0.8620437 1.1447326 0.21427609 1.3456247 -0.015270761 -1.0825282 -0.7209346 -1.0335985 -1.4156566 -0.051100586 1.6303765 1.4934024 -0.6171743 -0.2797674 1.5992464 0.8956596 -1.454163 0.69288945 0.5702945 0.89787865 1.5814478 0.70076984 0.8635211 -1.9138323 1.0884777 0.060784463 1.4782076 1.5832922 1.3524402 0.254466 0.7436021 1.6293353 1.1769036 -1.1568555 -2.0642743 -1.1881876 -1.4536964 -0.91477793 1.5680133 -0.30719116 -0.3542529 0.49451512 -0.17785364 -3.5860748 0.8884322 2.1727078
左乳 0.84799564 -0.5482044 1.7840546 -0.75958675 -0.30082983 1.3304961 -0.060458925 2.3187215 -0.2375848 0.22497138 -0.66057 0.85511607 -0.63352317 0.029771727 -0.085968755 0.66001064 0.35810545 0.63828796 -0.19988829 -0.75284183 0.8090113 0.81507665 0.7805529 1.9566102 1.2773141 -1.1852468 1.0361794 -0.6201348 -2.2750187 -0.61526024 -0.3734828 -0.91759896 -0.11693156 0.52668715 1.2824388 0.30334178 -0.22375275 -0.5343044 0.3736619 -0.90562266 -0.59908974 0.14530997 0.27517644 -0.48830003 -0.055013243 0.7497083 -0.55966216 -0.24071987 -0.2805126 0.7396433 0.9450945 0.04638169 -1.007695 0.93654644 -0.26084906 0.12683171 -0.19372071 0.9030895 0.56671464 -0.4372516 -2.587216 0.33504584 0.64345825 0.11638624 1.1789978 -0.41629443 0.35079122 -0.25708377 -0.021375552 -0.3345215 0.71360195 0.7097335 0.269887 -0.09057608 -0.27698115 -0.8100828 0.47719237 -2.105034 0.9041567 -0.102772616 -0.25456834 0.39177358 -0.28194317 0.76382834 0.035913046 1.1504838 -0.61095846 1.577368 -1.9362572 -0.98486346 0.024079297 -0.51205695 -0.59940094 0.04000427 -0.6641264 1.9680811 -0.02036275 -2.8795266 -0.8824255 0.4643828
密度 1.4746734 -0.9982666 1.4238371 0.19521743 -0.2612979 -0.59608847 -0.45921874 1.8379949 -0.8806372 -0.7266148 0.43450665 1.0224284 0.7797432 -0.23917793 0.95393944 0.94348365 0.44205004 0.96307635 0.1637866 -0.14895228 -0.15243134 0.7646113 1.4709302 -0.08382492 0.7295618 1.3172843 -0.93397576 -0.26477587 -1.0061609 0.15639412 1.0933399 -0.54617935 -2.8858507 -0.21706478 1.9618096 -0.089814626 -0.20719804 -2.6610768 2.3924115 0.10074829 -0.040141236 -0.023423346 -0.9231744 -1.3245249 0.31921044 0.50358444 -1.1995597 -0.6465426 -0.20625174 -0.3808465 -0.502598 -0.76023614 -0.25437394 -0.3455757 -1.4800318 0.73368114 1.2138551 -0.99325615 1.6336064 0.315067 -1.8949693 -3.1562958 1.0554537 1.5171388 1.4768591 1.2232817 -0.32740432 1.0016818 -0.07481047 1.3226038 -0.22469877 -0.08853361 1.566056 0.49945176 1.292579 2.0333917 -0.49923044 -3.8806028 1.633718 -1.0229546 2.4971128 1.3692559 -1.5978392 0.7704352 -0.9322734 2.2563715 0.7329345 -0.42068458 -2.4723334 1.2139778 -1.3354686 -2.1176407 0.72746843 -0.41378298 0.0075672795 -0.17262565 -1.5322993 -2.4263844 1.4504746 0.3581807
组织 -0.30193004 0.7799494 -0.28752705 0.47141168 -1.0381958 0.42001253 2.3782198 -0.057369336 0.3855873 -0.82911044 -0.8871114 -1.5636595 -1.9288713 0.03539671 -0.81287426 2.9994602 1.162999 -1.5927807 -0.32783696 -0.82384855 1.7175847 1.7027029 1.6093017 -0.13094279 -0.02946198 2.4882636 -4.2489767 0.8615578 0.9090006 0.3438829 1.2344254 -0.30087844 0.26755458 0.19672029 0.02755952 1.4690231 0.5909701 -0.25320023 0.034899555 1.2895805 -0.51424754 -1.0695541 -0.44818723 0.85077864 -2.174332 -0.3256511 -0.12365845 -0.38888285 1.4921521 0.5683927 0.13099247 -0.71348417 -0.05923127 2.0443368 -1.5578216 0.08275383 0.5949282 -2.548009 0.90123874 1.6663774 -0.57160306 -3.1035156 1.8537837 -0.60693944 0.20937015 -0.2457344 0.44832718 0.60167104 0.043700594 1.1227834 1.5503299 -1.1897086 -0.1018986 1.0443741 1.3145367 0.973466 -1.5301291 -3.003426 1.2914401 0.41875064 1.1984098 1.190593 -0.50684476 -2.4020798 -2.1542518 1.415032 1.4407007 1.2648696 -2.1562376 0.25945157 1.7890137 -2.066865 -0.11968194 1.810681 0.8622289 -2.4263916 -0.044335112 -0.5938774 -1.4201627 -1.9406266
皮下脂肪 0.8345877 -0.51968014 0.5864702 -2.2912228 -2.15857 0.04205243 -0.15036288 -1.0412353 -0.044765078 -2.6969745 -1.2270321 -0.2330812 -1.9600416 -0.08338841 -1.0740476 1.9201072 0.89067805 -2.4819098 0.22530524 0.4251618 1.0234158 -0.088785976 2.1334994 0.23245847 1.1987293 -0.06539458 -3.3923907 0.82691664 0.37453514 -0.5758505 0.33084494 -0.92470384 -0.26986444 -0.31163186 -1.050656 0.6984188 -1.0975541 -1.0879263 0.7586 1.0404152 -0.6471193 -1.9599876 -1.3229222 -0.2909885 -0.9899963 0.46414945 0.05671703 -1.4535588 2.3326714 0.09090379 -0.2637491 -2.1298506 0.65791374 2.471766 -0.40605348 0.44216132 1.3050544 -3.90462 0.052292638 0.9957063 -0.7421198 -1.8723149 3.0808027 -0.88908774 -1.0904039 -0.8563642 1.9967741 2.112592 1.0134033 1.6595381 -0.43155783 -1.3352268 0.27768645 -0.53823614 -0.8334172 0.9418169 -0.4115824 -2.6774213 -0.459566 -0.13099928 1.6503657 1.231572 1.3449546 -1.0345806 -2.6220596 0.88705564 -0.5994747 0.22285189 -1.8540195 -1.3107693 2.02822 -1.6470757 -2.448642 -0.6408449 1.5938188 -0.8200747 0.22621629 -0.17390426 -2.1642883 0.80762
呈 -0.31033063 0.7806546 1.1962017 0.19077417 0.4905145 0.028490625 -1.5974602 1.6226804 0.2840137 -0.77269685 0.041894708 -0.7008679 -1.260987 -0.2758201 -0.45597598 1.3792666 -0.80771255 -1.2831172 0.6685755 0.8538446 2.079915 0.24516213 3.4303036 1.2829833 1.7227693 -0.46053073 -2.0346892 -0.96320796 -1.7243685 -0.23078857 0.32639906 0.25503874 -2.914917 -0.0061120503 0.7186796 1.0334303 0.09293426 -1.3864404 2.072591 -1.0253217 -1.2841753 -1.6896262 -1.3327068 -1.3287787 -0.06876649 -1.1230307 0.9756655 -2.239154 0.45166042 0.75297254 0.5472294 -0.17125389 -0.20386906 2.312059 -0.08009136 1.1506404 1.7257707 -2.1030655 0.64761186 0.30440292 -0.81422514 -3.6095226 2.0904174 -0.25011128 0.37446406 1.0113926 -0.15721689 0.6494062 0.8620519 0.5493558 1.4386485 -0.14046963 0.2182061 0.28899843 1.0505439 1.3268195 -1.24533 -4.635475 2.366924 -0.5873405 3.1384246 -1.4323057 -1.2137138 -0.5895017 -3.1292768 1.0892392 2.1298 -0.75052845 -1.0418538 0.8143861 -1.4814495 -1.7178931 0.84332544 1.4187608 -0.038027298 -1.2279214 0.57015866 -2.0598965 0.70499814 2.0073245
清晰 -0.021453718 1.2218289 0.9882036 -0.70641994 -0.8356706 -0.5114819 -0.94254446 -0.61526275 1.314422 -0.8483481 -0.5609991 -1.2955402 -1.1939738 0.27730522 0.23194876 3.7265463 -0.47008914 -0.42403144 0.023092896 -1.3223956 0.037979018 1.0221429 2.4874234 -0.04534664 1.4795328 -0.90690744 -2.5300558 2.0093696 -0.2553337 1.2816621 -0.7708746 -0.3217019 -0.726408 -0.7582902 -0.23694411 0.87617195 -0.6968105 -0.40392518 1.3404102 1.3731804 0.7288226 0.084401205 -0.22093 -0.5407967 -0.35528186 -1.7115883 -0.1484369 0.109017394 1.6680274 0.5713555 -1.6142699 0.054965694 0.30258816 2.5516336 0.88998055 -0.20254317 2.3857696 -3.0056481 -0.48170453 1.5533024 -0.36403745 -1.8337574 2.1614103 1.0728563 0.5038167 -0.22134851 0.3605464 1.4697628 4.007713 2.416041 1.4832728 -1.1377723 1.6332176 0.63514626 -0.36723542 -0.17618765 -1.5879903 -4.0311437 2.180424 -1.384791 2.3365734 1.9237298 -0.56558293 -1.1694041 -2.598882 1.5554652 1.296267 -1.3643556 -1.5043536 -0.0894219 1.5263449 -0.6868295 0.16376512 0.95256454 -0.7179945 -1.9425874 -0.18087739 -2.4313538 -1.6432078 0.79143757
层次 -0.5898674 -1.7864077 -0.006077304 -0.3919841 0.51993364 -0.4719194 1.6059633 -0.015799921 -0.044011656 0.104981676 -0.34857503 0.06468062 -1.3358866 1.1570754 -1.9649985 2.91214 1.8232435 -1.7721082 0.13840346 -1.5329982 -0.058830824 0.19714564 4.2460747 0.6827698 0.9707146 0.9174917 -2.7882853 0.4340553 -1.1134944 -0.7460601 -1.3215364 0.18549103 -1.1825576 -0.122425415 -1.0556536 1.9950294 -1.7439815 0.4394599 0.5504863 2.063567 -2.4108665 -2.0713692 -1.1887926 -1.4788325 0.39584193 -1.7689129 -1.0091342 0.21878186 1.6651729 1.8384887 0.23972109 -1.9246136 -0.14526114 1.6806611 -0.33917183 -0.43555728 2.3828979 -2.0961342 -0.8253138 0.24942185 0.7752011 -2.8744748 2.7768986 -1.5914402 -1.390034 0.501029 0.8107354 2.1210113 1.1493341 1.1490468 -0.04013368 0.4419366 0.58982956 -0.8329134 0.8937734 0.33592346 -2.6766603 -3.4897249 2.0861807 -0.29853764 2.882885 1.0132407 -0.80121017 0.2851969 -1.4797614 1.7124091 1.0281504 0.28156775 -2.5528412 0.5500064 1.6622248 -0.420747 -0.62871003 0.09565122 0.4268825 -0.97187984 1.1875257 -1.0171945 0.29354843 -1.030228
无 0.2325335 0.4449844 0.62384117 -1.382404 0.45879406 -0.878205 2.1458035 0.50750524 1.0105698 -0.15802613 -0.87332964 -0.39448196 -0.8377751 0.14384402 -1.3928155 1.373592 0.009258981 -1.4553895 -0.76104265 -0.96177405 -0.02093385 -0.21093217 1.1802381 0.95234406 -1.4416107 -0.33477864 -4.454383 0.21327858 0.33322886 0.44478127 -0.2160805 1.7728807 1.1806982 0.21692586 -1.4019421 0.6483601 -0.4658921 0.1326079 0.80453056 1.4753437 -1.6821362 -1.8193233 -1.8466296 -0.19661978 -1.4377528 -1.888835 0.29172722 0.9828863 1.7486092 2.401555 -1.3931973 -0.37463436 1.1862719 4.1284637 -0.4565077 -0.6034415 0.92534727 -2.5001998 0.16780539 2.0486033 0.04288194 -2.1924329 2.1856327 0.6683483 -1.1312442 0.41416663 0.48639536 1.3208201 0.72570527 0.620272 -0.06347368 -1.3787562 0.0037746825 -1.1921204 -1.9136173 1.5562757 0.08593728 -2.8914306 1.4956951 -1.6280292 1.5922408 1.8935378 0.30403286 -2.6555614 -1.6419182 0.55537844 -0.46980482 -0.16573668 -0.99291235 -0.709182 2.1187918 -1.6311647 -0.5729571 0.114616096 0.54328954 -1.3495059 0.6163561 0.7725251 -2.046804 -0.55984575
增高 -1.0070155 -0.3774699 2.7430763 0.16597484 -0.25121176 0.89094865 -2.0704672 0.5272537 0.79131764 -0.52921724 -0.7067636 0.25381413 -1.0482271 0.70194566 0.55146295 1.3775499 1.4309576 0.42485029 0.50107324 -1.3052945 3.4196725 0.7734106 1.4274125 0.5193939 0.9786388 -1.0010022 -2.0987964 -0.20952816 0.02107875 -1.6875137 -0.12545694 -0.33246097 -1.3868175 0.33084488 1.3380775 0.08427647 1.4060538 -0.26159328 2.0941198 -2.1316047 -0.755447 -2.3790822 -0.56537986 -0.48711497 1.1646901 -1.1629767 -0.06369425 -0.6269831 0.1823054 0.7679449 0.84230596 0.7412689 0.014620031 -0.31975442 -0.8765166 -0.4798843 0.6049761 0.25440213 -0.69296986 0.11997679 -2.55082 -1.4858526 -0.434808 0.93763906 0.361203 -0.13013346 0.9334549 1.1199358 1.091141 0.70859903 -0.45105207 -0.6211276 1.9740703 0.9143201 1.6493369 -0.111440256 -1.9667343 -3.909471 1.3342717 1.2764033 2.992836 0.14749417 1.145452 0.15350838 0.17417781 1.5864538 2.3817422 -0.60559416 -3.139551 1.5773234 -0.8989225 -2.3151953 1.2959288 0.89035374 -1.6204543 0.22918889 -0.3818203 -2.297816 -0.4512152 1.9962757
右乳 0.9675889 -0.42688116 2.2228777 -0.5029767 -0.10897433 1.4226334 -0.26035985 2.3888645 -0.47893476 0.10242822 -0.8429567 0.97857237 -0.14051838 -0.3227561 0.071338415 0.43248862 0.11832366 0.9853891 0.020141643 -0.58854324 0.8173829 0.8176637 0.54256725 1.9030149 1.0974793 -1.1234541 1.2374401 -0.6604388 -2.079822 -0.43691972 -0.2567633 -0.9620588 -0.1498305 0.5823616 1.2379328 0.06812371 -0.057598043 -1.1015172 0.58677953 -1.0102272 -0.7243421 0.2609602 0.20524982 -0.3284087 -0.096242964 0.7653074 -0.5785484 -0.05485767 -0.46779397 0.49195185 0.99987787 0.01023086 -1.2479923 0.5432878 0.09863547 -0.13963999 -0.19449346 1.0660069 0.61074334 -0.771443 -2.6324792 0.20935285 0.022619063 0.3567047 1.387692 -0.16072513 0.35523954 -0.13031405 -0.07453784 0.00931894 0.48093522 0.84693384 0.26949668 0.15504618 -0.24041688 -0.45869982 0.39063287 -2.37347 1.3586732 -0.06972496 -0.039943404 0.775639 -0.06755828 1.0262786 0.08449647 1.341287 -0.38911414 1.2920808 -1.6863815 -0.731955 -0.5032886 -0.35520294 -0.32377592 0.28930065 -0.69107515 1.8704803 -0.038059432 -3.2440908 -0.20197734 0.60985535
、 -0.28663906 0.059370764 2.70897 -0.21390039 -0.5163094 1.363741 -0.8346901 1.1441568 -0.18633391 0.5405436 -1.3295765 0.0918321 0.027561732 0.0314403 0.28137317 0.09075858 -0.5275575 -0.37792116 1.5903198 -1.5066978 1.912957 0.847609 2.544538 -0.066616476 0.9686677 0.3881843 -0.9259593 0.40508232 -1.1895378 -0.5836968 0.7222318 0.17743286 -1.880341 0.35548842 -0.43545726 -0.5824785 -0.43569124 -1.2033684 2.1536314 -0.999663 -0.57026684 -0.32823974 -0.14229657 0.70605177 0.22838457 -1.0695128 -0.23777261 -0.25401914 -0.3597054 -0.020576553 0.65407205 -0.5215283 -1.0730149 0.06942761 -1.8278205 0.34530962 0.81051683 0.13068387 0.61576766 -0.21049628 -2.2762518 -1.8203886 -0.53921145 0.51300836 0.12023721 -0.32908872 0.86394674 1.607431 -0.2495378 2.0879068 1.0652006 -0.15602833 0.6656643 0.024775067 0.3480846 0.93197256 -1.1139958 -3.6898503 1.7022276 0.47660348 3.005916 1.2853764 -0.32745463 0.7483312 -2.2305396 1.9482234 0.44386432 -1.2804551 -1.5234479 1.2279948 -0.5734429 -1.0011716 0.5753891 -0.046682306 -0.50480086 -1.2691919 -0.5035967 -2.044078 0.3671661 1.0962712
团片状 0.77840513 -1.3833412 0.9359735 -1.8464718 -0.43193564 -0.3400886 0.20398588 0.4545091 0.617301 -1.4441099 -0.51130027 -0.14902835 0.59244514 -1.6846654 -0.7296858 1.4315826 0.109030396 -0.15912879 2.2652712 -1.5376089 2.5243483 1.9470077 2.285708 0.09538322 2.1078022 -0.3083739 -4.161476 -0.11793741 -0.6581098 -1.0195551 0.35656154 -0.67026806 -2.8087153 1.4492173 0.5446753 0.7604452 1.212309 -1.426122 3.5462332 -1.0292854 -0.6458862 -0.37746757 -1.2503648 -1.0141355 1.4336288 -0.66565275 -1.5690993 1.0199387 -0.14397207 1.4534912 -0.7038054 -1.1379418 1.1176016 -0.026456641 0.04728235 0.328202 0.7981157 -0.16785593 1.0007527 0.3491196 -1.9256159 -3.0427775 0.6098042 0.4642642 0.64570427 0.5784526 0.31670836 1.8438475 2.5124466 1.4911596 -0.45499253 -1.0120828 -0.17311934 0.54292935 1.2748605 1.2073259 -2.035017 -2.4700606 0.75934696 -0.39739677 2.51724 1.0983901 -1.1749183 -0.5094072 -1.0239643 2.9174738 2.1054773 -1.4246135 -2.2970772 1.393229 0.51906383 -1.0235465 1.0859545 -0.024786444 1.1415915 -2.0430918 -1.1330991 -2.8212922 0.51759326 1.7980564
边缘 -0.44098416 -0.702388 1.5168188 -0.40881503 0.26053068 0.96803933 -0.99959594 1.0295353 0.6723904 -1.4374083 0.07198151 0.5633345 1.339441 -1.5437121 0.34707385 0.50404114 -0.16162904 -0.43049243 1.5006193 -0.1686825 1.8951528 -0.5943871 0.76030695 0.7994162 1.3729975 0.23084058 -0.534967 -1.1061225 -1.2911774 -1.4465699 1.2722641 -2.652021 -2.2376158 0.4803478 2.7440162 -0.0029325907 1.1860635 -1.6808465 0.90667945 -2.0524337 -0.17080572 -1.5344411 -0.9890808 -0.56783736 1.1532351 -0.550692 -1.9872627 0.25222948 -0.5394604 -0.57694936 -0.8836805 -0.3641272 -0.59073603 -0.86783177 -0.8813061 0.71212524 -0.38392892 0.27484256 1.1017163 -1.4825855 -1.5015196 -1.6659187 -0.843066 1.1857084 0.27816302 1.171991 -0.50670105 1.4427743 1.7181519 0.59203476 -0.30689377 2.0743637 0.77788574 2.2033763 2.1434824 -0.6248989 -1.0212052 -4.566061 0.9267667 1.5096493 2.2740343 0.68705994 -0.76842517 1.576523 -0.312831 2.4823012 1.8382527 -0.81890416 0.2984419 0.6393907 -2.3648994 -1.4980911 0.7031608 1.0936052 -0.7866296 -1.0647627 -0.57683337 -1.3376958 1.0360097 0.43223348
腋下 -1.1438714 -0.45343682 0.19237146 0.63284063 -0.98447174 -1.7061061 -1.4786808 -1.8504332 1.0867012 0.1620741 -0.6528467 0.0778272 -0.45460495 -0.7832821 -0.29576188 -2.324692 -1.7645029 -0.50644934 -0.53421 -1.2235944 -0.54418653 -0.4043737 -0.21351255 1.3449225 0.63184047 0.690008 0.99194056 0.7988707 -0.56066036 0.17123467 2.009849 -0.43550655 1.5687333 0.77780324 -0.44698927 -0.7962775 -0.5193643 1.970106 0.69120735 1.047256 -0.5162092 0.4077158 1.0019338 0.06477119 0.07443863 -0.43071967 0.6267983 -1.4746472 -1.0328208 -0.71133405 0.16031367 -1.3242439 -2.505584 -0.57045907 2.2100198 -0.8252925 -0.9383405 0.5720788 -0.6765453 -1.4253911 0.010406129 -1.9136118 2.015091 -0.99311006 -0.6652175 -0.4398495 -0.016807094 0.21189228 0.28970543 -0.5381633 2.46623 0.4824533 1.9575865 -1.2530028 -2.813224 -0.7919347 1.1831114 0.8985878 0.11549408 0.36641905 0.29286173 0.921369 0.04113242 2.1413095 0.9186595 0.16775405 0.9105957 -0.052246533 0.8423982 -0.21277167 -0.9467164 1.4812397 0.16260403 0.4453756 0.9779681 0.9066932 -1.4381791 -1.1676862 1.4052327 0.17429635
丰富 0.21094136 0.13790621 0.92335016 -0.65179485 -0.02965196 -0.619295 -1.1919352 -0.38009372 0.9162018 -0.8783081 0.013041668 -0.37415695 0.116612695 -0.02131598 -0.6421274 2.223252 0.9223784 1.2550669 0.8021093 -0.7776853 -0.39489496 -0.14920951 2.0325177 -0.6432952 0.40808088 0.7791908 -3.891052 -0.86763215 0.60558814 -0.6238967 -0.15090215 -0.43052235 -1.0403373 1.3353105 -0.8611959 1.7376373 -0.1151852 -1.6461877 2.5508835 0.5111894 -1.1514279 -1.4364645 -1.7195793 -1.4840115 1.0573606 -0.79794973 0.9216476 -0.09155705 1.0261108 1.9666245 0.624914 -0.5200173 0.90227246 -0.38324347 -0.016680403 1.2608505 1.789785 -1.706006 1.0614166 0.055885118 -1.615618 -3.6459384 1.2784384 0.80710864 -0.79684013 0.46242243 1.0209825 0.7263152 2.8511713 2.1057904 -0.3695824 -1.4852654 1.6790289 1.0555458 1.3995837 1.4558591 -2.2628067 -3.7549963 0.59490937 1.1216415 3.9398448 1.2498146 -1.2618346 -0.080333106 -2.8258011 1.0423319 2.35575 -0.9913509 -3.2656498 1.5237484 1.3926729 -2.4793906 0.20714086 -0.028081244 0.43414134 -2.7944887 0.26926184 -2.326897 1.5262028 2.1855924
较 -0.3736862 -1.198751 0.39921683 -0.5582008 -0.116730034 -0.17667918 -1.2620505 -0.6955883 -0.33412236 -0.22746481 -0.041904185 -0.40468016 0.18265525 -0.0701037 -1.075171 1.7186292 0.46045217 -1.0332016 0.336317 0.18642215 2.4815388 0.54243565 2.0995028 0.28129652 0.7327467 0.98366576 -2.319106 0.5806185 -1.0593562 -1.8749679 0.45617953 -0.1565721 -2.264411 -1.0476705 1.1351827 0.78887403 -0.05225838 0.6019227 2.605928 0.26624265 -1.48148 -1.5734388 -0.7601287 -0.5423905 -0.28013816 -0.8653197 -0.06738132 -0.7085617 0.24706037 -0.48699278 -0.9710675 -0.7720663 0.40464863 1.4629581 -1.9693301 -0.8496379 1.1177083 -1.0098978 -0.9244886 1.2002583 -0.44467252 -2.2051713 1.4176551 -0.34596825 1.4667592 -0.56335574 0.43499157 1.6245149 1.355449 1.7195455 -0.11803357 -1.5144846 0.9504495 0.283196 1.182009 1.4602045 -0.13801177 -3.4048073 1.4460526 -1.2493764 2.6339188 0.9060868 0.45894068 -0.94463277 -0.23549154 2.0277145 2.2753174 -1.6014917 -3.131535 0.2326989 -0.24975398 -1.7620558 1.4303875 0.21651529 -0.17771722 -1.2114685 -2.0655067 -0.7075294 -0.41039628 0.8914673
状 1.0056704 -0.010227144 1.7433112 -0.109643966 -0.4772586 1.9945716 -0.27596417 0.8165921 2.0841606 -0.80092365 0.75283635 1.535691 0.4366725 0.15937969 -0.5235914 1.4433851 -0.7062273 -0.0007453354 1.282948 0.041983835 2.6245136 0.58274347 2.1915655 -0.6099103 2.021598 -0.9603834 -1.3580596 -1.5643245 -1.8420533 -1.0199671 -1.1403724 -0.29585916 -2.32322 1.7026508 2.4476044 1.2179066 0.81319505 -1.8871977 1.512876 -0.88887346 -0.44913447 -0.85061765 -1.3601526 -1.1318507 1.0447999 -1.0453098 -0.3047955 -0.14392745 -1.4436733 0.96609133 0.1545782 -0.18928234 -0.14286037 0.13846678 -0.8004533 0.09291916 0.96084034 0.8648993 -0.0268473 -0.32731518 -1.9494625 -3.1256747 1.8067338 1.9433544 1.9681374 0.16127533 0.31025213 1.2454199 3.1544445 1.932268 0.43837124 -1.1779566 1.2569219 1.233007 0.7346886 1.5982734 -0.6745656 -2.8017294 0.99127465 0.57556975 3.5030875 -0.023330271 -0.30271086 0.1821534 -0.43408605 3.4976454 2.340757 -0.93238527 -2.3906598 0.9613587 -1.1763179 -1.04034 0.036307085 -0.34469852 0.72441506 0.17349026 0.49131486 -1.9490258 1.3503132 2.0232382
点状 1.0488805 -1.3407642 1.0614576 1.3222933 -1.7015234 -1.47074 -0.67163974 1.1664035 2.745948 -0.5099767 -0.67897975 0.5431137 0.14499924 -0.52391917 -0.2524682 -1.2910923 -1.2538606 1.2241642 -0.13938287 0.72827816 1.2836584 1.1250299 -1.2646245 1.7222453 1.6407963 -0.36064726 0.5276916 -0.8862621 -0.05039715 -0.059528966 0.050101716 -0.3404679 -0.43098706 1.3225448 1.4843765 0.14471975 1.1877732 -0.0077565126 -0.07211488 -1.3017939 -1.0299983 -0.645945 -0.65558845 0.2854005 1.0583876 0.22116743 0.5549518 -0.03247652 -1.9358476 -0.8559127 0.70998996 -0.3641941 -1.9797499 0.7683365 -0.12515716 0.25889853 -0.93833566 1.8559937 -0.784857 -1.3956777 -1.339221 0.3449271 0.61191297 1.3488587 0.37573758 -0.60861623 0.05959726 -0.25683236 0.23395056 -0.71419996 0.20349947 -0.40234607 1.6514269 -0.2396964 -1.586951 0.057408992 0.5005115 0.17660134 0.57147336 0.88531804 -0.62400657 0.8496854 1.0390384 1.6775993 0.6232942 1.0342803 0.9474691 0.6285872 0.516253 -1.1142907 -1.889517 -0.09914412 -0.28748882 -0.5729249 0.5046782 1.8966476 -0.96917015 -1.3226793 0.23386888 -0.946046
对称 0.285207 -0.4555314 2.090692 -0.1314549 -0.09205548 0.44573638 -1.3761301 1.6090525 0.42596084 -0.86904407 0.53905165 1.1363912 0.67141366 0.051114324 2.9562125 -1.4672443 -0.19234516 -0.20306617 -1.2213382 -1.5060413 2.4578123 2.0852582 0.9580005 0.47033432 0.6958388 -0.9748153 -0.98515403 -0.26424253 -1.1888341 -0.66142786 1.9408593 -0.1414175 -1.910675 0.54765713 1.6403073 -0.5171349 -0.3310267 -2.0067873 0.7798371 -2.4290397 -0.62752664 -1.019019 -0.5082961 -1.0878145 1.7374848 0.88026947 0.023204274 -1.1589621 -1.5255882 0.76982814 -0.082872264 0.1267669 -0.76200336 -0.67260396 -1.0890155 0.57081604 -0.63484275 0.954061 0.037874933 -0.8517933 -1.2950544 -1.3973409 0.004121169 2.443504 -0.21101601 0.0922821 1.5796137 1.5984076 0.75489503 1.0900136 -0.016160874 -0.77924746 0.062197406 1.3998277 1.7966769 -1.6636622 0.34510756 -3.7180378 2.160688 1.0948406 1.2770783 0.65077764 -1.2002783 1.2666764 0.67039627 1.0689901 1.1493053 -1.6630965 -1.2996879 -0.7601796 -3.6719613 0.21411917 -0.4736432 -0.82776415 -1.0065719 2.9620552 -0.80265343 -0.9551366 -0.41539726 1.5708117
大致 -1.2567337 -0.6995637 1.7843972 1.2781724 -1.0776801 -0.298437 -0.58159655 2.287016 0.9166051 0.6090456 -0.6485337 0.47530907 0.40701377 0.06194422 -0.41304904 -0.63358694 -0.5170258 1.1190914 2.3967237 0.3361712 1.0954213 -0.4435494 1.1075784 0.7640388 3.3688376 -1.5091876 -0.76576483 -0.40264285 0.02313511 -0.047985423 -0.9918808 -1.175524 -2.5795827 -0.17299767 2.4696155 0.30587256 0.26055175 -1.0390272 0.9406299 -2.1607904 -0.818509 -1.0101163 -1.402528 -0.9325097 0.9909305 -1.4071659 -0.3400602 -1.2226021 -0.73041636 -1.0140456 1.8594518 0.9723834 -1.1569406 -0.5201555 0.69031686 -0.6579612 -0.3744426 2.4903922 1.2390194 -1.3882177 -2.0976224 -1.4986382 0.078143924 1.7666773 1.6962658 0.71466506 0.19495292 0.61776567 -0.3505491 -0.7580969 0.7815579 1.4362491 1.2789353 1.105908 0.07593077 1.3163744 -0.7032166 -3.2260292 1.8922364 0.24890198 2.3470666 2.2545705 0.48207375 0.59698606 0.5655081 3.207291 1.3525888 0.07332663 -1.0934174 1.8278421 -1.3505974 -0.38793513 0.4700616 0.20039721 0.6389419 -0.09720195 -0.48750207 -2.003046 1.0979877 0.95884347
膨隆 0.06849247 -0.97892743 2.600821 0.15922421 -1.1031375 -0.4346472 -1.915693 3.0965323 0.49959302 -0.8244965 -0.78460664 1.1273249 0.49234533 0.37182242 2.1775582 1.2763242 -0.5063995 1.9951402 0.8524999 -1.8267707 3.54141 1.3401016 1.9391524 -1.0011889 3.1245549 -1.4530234 -2.564544 -0.13724695 0.7483689 0.31190038 0.6590424 0.4862064 -4.559251 0.80954117 2.2574365 -0.8937755 0.77985823 -2.0591805 3.357719 -2.7753532 -1.3608778 -0.34370044 -0.15229607 0.8264993 1.5051079 -0.8284564 0.6615464 0.12770489 -0.31480277 -0.49363142 2.201479 0.3880102 -0.4594147 -1.0894866 0.9905458 0.25617784 1.026133 0.054370712 0.9683483 -2.3270102 -1.4010434 -2.1358087 -0.611483 1.0382359 0.5651091 -0.17348886 1.6555651 0.8751214 0.3653399 1.3838962 0.87240314 -0.25529176 -0.1483955 1.1813284 1.0638137 1.9500211 -0.84720826 -1.8992872 1.7639933 -0.7037421 1.7447243 -0.47428343 0.06693772 0.22415242 -0.5487034 2.5621772 1.936717 -1.2771468 -1.9690704 1.5054027 -2.016061 -1.0083666 0.11717208 -1.1729404 0.5476828 1.054801 -0.7675548 -3.2435224 1.276619 0.78411376
淋巴结 -0.77402955 -1.4107494 -0.26710126 1.2832918 -1.0596538 -1.5943189 -1.5524824 -1.7435365 0.33359396 -1.1747041 -1.0479996 -0.8002307 -1.1686078 0.14822127 0.23293567 -3.622453 -1.8080664 0.17135918 0.22086082 -0.45218587 0.2385069 0.6421006 -0.10280139 0.91599315 -0.52865136 1.1932144 -0.49718863 0.43424535 1.5821018 0.83002645 1.1963042 0.2416727 1.3533174 0.44910505 -0.30829415 -0.26574674 0.6463774 0.2825749 -0.0107076075 1.2633376 0.945746 0.26744494 1.3399692 -0.7486276 -0.27303654 0.36849773 1.1630895 0.5685554 0.118404865 -0.94404894 -0.6028584 -1.8465879 -3.3798285 0.70500946 1.7640724 0.65595305 0.551223 2.0760372 -1.2959135 -0.49936208 0.7103736 -0.7532466 2.1548412 -0.083639815 -0.06965669 -0.35776734 -0.98484427 0.8647589 -0.4199336 -2.0609667 2.6346886 0.7334421 2.3001938 -0.28731403 -0.9501 0.61431307 1.2400819 1.6958385 -1.424597 0.11936509 0.3158381 1.5830554 0.6562431 2.5888102 1.3282968 -0.8217458 0.31725696 -0.18807812 1.4364945 0.26218054 -0.28394938 1.8434638 -1.1446358 0.6863783 1.1215355 1.153064 -0.273888 -0.2673845 0.8260905 -0.106238335
大小 -0.91709906 -0.6505276 0.83462286 1.7424866 1.513338 -0.34126535 0.0009072377 1.2587719 -1.3677549 -0.5727844 -0.8734349 0.072963014 -0.43215194 -0.12274344 2.0513594 0.5668417 -1.5239561 0.24607565 1.2403648 2.6283011 -0.36301968 -2.3865728 -0.33070907 0.40654814 0.23557845 0.13880831 1.0872716 -1.1412545 -0.47324607 0.9257879 -1.3519548 -0.008924685 0.41162094 -0.028375011 -0.980788 -1.4390529 0.894398 -2.5358324 -1.7266657 -0.15412852 -0.9763774 0.39466688 0.39739892 -1.3014342 -0.25523025 0.5677664 1.7412287 1.2166963 1.1153631 0.39939344 0.7517192 -1.7450285 0.94782865 -1.4893568 1.861686 -0.7038679 -0.86655575 1.6009941 -0.69986 -1.4985074 2.3505898 -1.2685986 -1.8356689 -0.104475975 -0.5148399 0.59017557 -0.32300672 0.5294252 1.7061001 -0.81964016 -1.6952864 0.70023334 0.74790895 0.77655756 0.7580105 0.43306834 -0.3842578 0.7538635 -1.1801682 0.24210705 1.8230443 -0.7749355 -0.16535185 -0.7028901 2.1440783 -1.0760405 0.42670923 -0.79196006 0.011716001 0.9197438 -1.0924182 0.0030522752 0.7950638 -0.18563823 -0.22342932 -0.93820083 -0.8090484 0.20560631 2.1700954 -0.064106174
右侧 0.0074895616 1.0933751 -0.10284621 -0.35683668 -1.3937112 -0.7373952 0.78034854 0.97176564 -0.1471937 0.7353972 0.0033133165 0.3705132 -1.0640408 0.7303398 -0.13441034 0.11008412 0.28021196 -1.4301103 0.24844112 -1.4328864 0.7133047 -0.25275436 0.706026 0.33757326 0.055361785 0.100162126 -0.90486944 -0.006385319 0.2596064 0.4692944 0.03301607 0.16915274 0.61672324 0.43803722 0.17177187 0.3405884 -0.7672402 -0.013253641 0.41848403 0.7660468 0.34301528 -0.74031657 -0.22632107 -0.8372483 -0.4955311 -0.05642856 -0.9062273 -0.41420317 1.1350709 0.769567 0.017924003 -0.81020546 1.0979398 1.7640442 -0.58324975 0.13910934 -0.1736886 -0.20141782 0.97957796 0.78110003 -1.1967555 0.8684576 0.3925018 -1.0076596 -0.8410072 -0.2510096 -0.5629319 -0.5944796 -0.577375 0.002638278 0.8001886 -0.13132027 0.005139107 -0.068347655 -0.1989169 0.09845676 0.21519133 0.482613 -0.45423695 -0.32392713 -0.078719296 0.35915983 -0.071735606 -0.023177022 -0.37152335 -0.20517191 -1.1986104 0.990278 -0.6321326 -1.0996143 1.4526803 -0.7171768 -0.8722272 -0.29812413 0.4125666 0.54068094 1.2661932 0.8923808 -3.0981927 -1.245647
显示 -0.37441233 -0.21919438 1.1600631 2.005525 -0.82490987 -0.701122 -0.890298 -2.5721195 -0.16448827 -0.27449855 -1.3626492 -0.23523067 -1.8251684 0.19299915 -1.2232276 -1.9101279 -1.1611241 -0.6713646 -0.06629422 -0.296157 -1.6394728 0.19365865 -0.26150626 0.0073011518 0.97083104 0.50276506 -1.4086812 0.38089123 -0.5591942 0.89493364 1.6819997 0.87072873 1.078993 0.54931456 -0.93665725 -1.2863319 -0.21960287 0.37382144 -0.8115762 2.2702792 0.39411297 -0.6641285 0.4000143 -0.16683851 -0.37955377 -0.013123617 -0.15798041 0.04864483 -0.025842855 -0.24586146 0.13317114 -0.86771405 -0.8014402 -0.30067524 1.4031765 -0.6961881 -0.65796053 1.0081096 -1.2582926 -0.41911733 0.45706978 -0.37400258 0.7970751 -1.7473828 -0.17484967 -0.6363452 -0.5531886 -1.0228604 0.5096706 -0.046068657 1.4190162 0.16557297 1.5308107 -1.2006754 -0.22471271 0.25774622 0.92458385 1.0270455 0.034572665 -0.5167979 -0.648345 1.9133351 -0.017531501 1.3355727 0.94779676 -1.4687445 0.48540515 1.2353902 2.077241 -0.34683228 0.9473451 1.8815497 -1.2032205 1.2814438 0.8709168 0.4774954 -1.7617345 -0.16205464 -0.9943713 -0.29934376
细小砂粒状 -1.7692645 -1.0503081 -0.045932487 1.2201709 -3.3387911 -2.0338392 -0.21154638 0.5988328 1.8404756 -0.10935808 -0.4729125 -0.9315355 -1.8334112 1.3587341 0.29048306 -1.5554588 -1.6729274 -2.1576643 1.0240682 -1.967502 0.78824604 1.9440017 0.17904013 0.7438537 2.1356156 0.054138403 0.39984187 0.24488126 0.2964733 0.85966444 0.94044936 0.5497431 -1.98765 0.9088942 1.2938333 -0.9070137 0.7920457 -0.375794 -0.29423153 -0.22099136 0.46708402 -0.7909588 -0.7633449 -0.5412088 0.87328786 0.5254428 0.4707825 -1.9796349 -0.1890513 0.69362026 -1.5413733 0.15083231 -1.2427719 -1.3189441 0.5612164 0.75033957 -1.5270504 2.841918 1.6877015 -1.8341299 -1.0584072 -1.7094933 -0.79662323 2.578352 0.29945812 -0.34627688 1.0400254 2.4675405 -1.6080691 -2.0999582 1.3696233 -0.008618206 2.2179685 -1.0096328 -2.0567026 -0.70055157 0.94896036 0.8852843 -1.493171 0.99011 -1.472189 1.9238343 -0.9675088 -0.43198785 2.0891368 0.60154897 -0.5547196 -1.3045008 -0.38315538 0.44296846 -2.5036309 1.820808 -0.4607885 0.37210163 1.6507413 2.1542056 -1.2934053 -0.29272535 0.29099637 -0.8791025
灶 -0.15142334 -1.3485016 1.6615593 1.0574914 -1.1506538 -0.58822316 -0.9960863 1.0639772 1.4967031 -0.051399276 -0.27674207 0.4226702 -0.08347227 -0.084794916 0.042861756 -1.7004095 -0.81776774 0.9737652 0.31904492 -0.25602 0.4033266 1.5466969 -1.117693 0.84698904 1.6303573 -0.11805706 1.6375481 -0.9684253 -0.3651692 0.20525026 0.68346757 0.060874525 -1.3483391 0.15015975 0.24719718 0.35708782 0.61059225 0.649016 -1.1080477 -1.4330732 -1.149342 0.22916389 -0.5547504 0.1482684 -0.5728157 0.5067936 0.13018464 -0.1903675 -1.3207959 0.4754805 1.3823621 -0.4629273 -2.3165772 -0.25611854 0.8764007 0.776277 -0.465205 1.8167443 -1.0853534 -0.9464706 -1.1642071 1.5594305 0.26144093 0.94895893 -0.15012184 -1.3644258 0.23405401 -0.10506653 -0.97068316 -0.22072947 0.63105065 -0.27770135 1.1865654 -0.74929595 -0.41187692 -0.29167202 0.607898 -0.01585573 0.39837462 0.91577154 -1.1592351 0.769392 0.37582028 2.4197192 -0.13361917 0.06549343 0.5498663 0.24975497 1.3732687 -0.45500514 -1.4759363 1.1059356 -0.5232351 -0.8820895 0.27562875 2.1796014 -0.28760296 -0.74905944 -0.26301914 -1.4202149
肿块 0.4135713 0.32105976 1.2651182 0.9690272 -3.1970048 -1.2350147 0.55147856 0.16662996 -0.47512063 -0.6727913 0.14142436 -0.61985576 0.83159584 1.6936516 1.0918099 -0.5865321 -0.44417804 -0.39646333 -0.13038592 0.096913464 1.5155096 -0.41540813 0.2220865 1.4078737 1.9981046 -1.1638111 -1.0598273 0.059236027 1.3119113 0.9547002 0.96952915 0.24483252 -2.2338147 1.1691989 2.571261 -1.2405181 -0.20407657 0.051320445 0.43077216 -1.3520534 0.32956427 -1.39382 0.52099264 -0.7100187 1.2527931 1.4490151 0.6071189 -1.9873526 -1.1829476 -0.74366266 -0.74178344 -0.88297546 -0.9644807 -1.2108198 0.013711846 -2.0816743 -1.5989938 1.415769 0.62967366 -1.4533271 -0.52319723 -1.3641924 -0.13953826 1.7044988 -0.07609762 -0.14083597 2.6139646 2.2868361 -0.44334877 -1.7923932 0.1300483 0.6634006 0.7841748 1.6466537 -2.5437422 0.0010643872 0.0145395845 0.06650884 0.40966463 0.47164488 0.12383387 2.021155 -0.72579134 2.6474 2.7088926 1.1255993 -0.7816126 0.23927508 -0.78757465 1.4025168 -3.4862132 0.1092301 -0.069250025 0.48139927 -0.41829297 2.0887008 0.82139903 -0.49792254 -0.6328402 -0.7637614
未见异常 -0.15008035 -0.35857755 -0.5337643 1.603868 -1.1390903 -0.317918 0.22180362 -0.18009512 0.040110875 0.2145319 0.41860056 -1.3725209 -1.0623463 0.81844395 -0.4125905 -0.41799533 0.017381923 1.2780092 0.6219418 -0.13556868 -0.34019327 0.09837274 -0.8722324 -0.69180703 -0.05705539 -0.43798545 0.6156534 -0.22559485 0.02349671 -0.7481631 -1.9283057 1.2676173 1.4218066 0.58941203 -1.1682159 1.2288837 -0.04774197 1.1057242 -0.21668841 -0.0719361 -0.93215007 -1.4144521 -0.067149706 -0.12843415 0.7239545 -0.14496624 1.5199457 0.67479455 1.110762 0.3778438 -0.6796496 -0.8068032 -0.035083447 -0.005617139 1.4604437 -0.9268564 -0.8411874 -1.5428767 -1.0734444 -1.8547161 1.8739271 -0.38372552 -0.92628133 -1.1207658 -1.6217493 -0.6596269 2.2527537 0.57380956 0.65402573 0.812087 0.1353796 -1.5094402 -0.7845818 0.6362265 -0.039450932 -1.2776165 -0.73292756 1.4394556 -2.047097 1.8333298 0.34192514 -1.72816 0.08583098 -1.9656738 0.98239803 0.42248157 2.4238343 0.46608913 -0.93269694 0.9759938 0.2859518 -0.33958256 -0.57860374 0.33931914 0.8885217 -0.84252465 2.240598 1.37973 1.8683752 -1.3241104
左侧 0.15901175 0.7967638 0.38710997 -0.13962114 -1.1553955 -0.49735224 0.47831857 1.0819715 -0.01375018 0.48431087 -0.5176971 0.36533588 -1.0400435 0.6704607 0.057960242 -0.057935458 0.25034943 -1.1889888 0.32517096 -1.2749385 0.7751518 -0.4808652 0.48061883 0.54099274 0.39057967 0.20075297 -0.960438 0.2890771 -0.09838887 0.4587318 0.3181957 0.19569452 0.5565354 0.5980157 0.63673747 0.33068362 -0.57038903 -0.16357113 0.36665675 0.54398906 0.67400295 -0.6193967 -0.36586305 -0.91019243 -0.3081764 -0.110081814 -1.1765541 -0.66451776 1.1494142 0.960894 0.05046421 -0.4664507 1.0127513 1.7406038 -0.6639608 0.039615616 -0.35464355 -0.25153416 1.2016461 1.1001453 -1.5365767 0.5142091 0.6672043 -0.34373814 -0.4428443 -0.34409466 -0.6573522 -0.14109376 -0.54474723 0.12586576 0.86759883 0.10044472 0.3529918 -0.25186267 -0.25646192 0.049541757 0.21549541 0.16124044 -0.55410135 -0.22358352 0.06944857 0.46366313 -0.3010134 0.029949166 -0.5706409 0.12569828 -1.1380112 0.81984705 -0.52675915 -0.7058757 1.6109604 -0.8097461 -0.5307042 -0.16012515 0.23937331 0.48662278 0.689057 0.544997 -2.97362 -0.95114154
双乳 1.3991914 -0.29937991 2.841807 1.0746592 -0.48262525 0.6293691 0.28994194 2.2257907 0.10390966 -0.57186097 -1.0077417 0.9079449 -0.9429378 -1.3620524 0.19955954 -1.0241934 -0.18700139 1.0381708 1.1662122 -0.07475377 1.3435643 0.80554014 0.09773282 1.5014608 0.5659947 -0.95665574 1.5578458 -0.16729312 -1.9660388 0.011407906 0.14426532 -0.7676034 0.35082403 1.7337352 0.5684295 -0.2572715 0.08883385 -0.59482414 0.09683303 -2.4316998 -0.40587655 -0.71871054 -0.040430605 0.20478861 0.57879215 0.57403 0.05594349 0.027228348 -0.895081 -0.4204862 0.46630424 -1.0892639 -2.0864427 0.98804873 -0.5565217 -1.2226883 0.3098323 0.47633576 0.66922194 -1.8085672 -1.8687503 -1.0407536 -0.29740894 1.3384335 1.0012182 -0.33308482 0.27489617 0.28390414 -0.1821961 0.7363242 0.79972726 -0.1912044 0.90194046 0.045146503 -1.2082698 -0.5473011 -0.72815895 -1.5578008 1.1779212 0.12911473 0.53478587 0.9488831 -0.361681 2.212818 0.33628088 1.7748489 0.9895408 1.822136 -0.25789225 0.55953676 -1.4329983 0.16509743 0.03208518 -0.15053871 -0.973465 1.0001677 0.31160006 -2.4774597 0.52080196 -0.05046676
异常 -1.1191287 -0.71727496 2.884968 0.002522114 -1.9093468 -1.1308633 0.35255027 1.5723501 1.3989112 0.6155799 0.20331472 0.06058952 -0.42816228 1.5526339 2.041237 -1.0132331 -0.8449513 -1.5438489 1.7447468 -0.67008 2.691473 -1.2100842 -0.14275268 -0.43443802 1.7547389 -0.8549708 -0.9273476 0.72320426 -0.57721615 1.58464 1.4848789 -1.2615296 -0.9766863 1.9502238 2.7124648 -1.2249665 -0.36523482 -0.26060876 0.4785885 -1.3499914 -0.005635191 0.41107178 -0.07175792 0.9102064 1.4420931 -0.5872549 1.408102 -1.4351352 0.7662176 -1.3848389 -1.2883487 -1.7575729 -1.7281307 1.2909069 -1.1196657 -0.37562215 -0.023990383 0.7624372 1.8595961 -3.150659 0.71521693 -1.6170624 0.01034107 1.6855904 0.02797355 0.1549555 0.11570453 3.1817014 -1.5032299 -1.7975706 1.3965464 0.19413246 0.80357736 -0.46561652 -1.2598892 -1.7972487 0.51509684 -1.3423291 1.1360669 1.5914327 -0.363921 2.6090434 -0.44869965 -0.02171986 0.86865515 1.8921064 -0.009427404 0.7661743 -0.6280157 -0.40455222 -2.2174475 -0.50074893 -0.95644134 0.21719158 0.41140497 0.94634384 0.55941373 0.5987043 0.8286784 0.20252748
簇 -0.41328278 0.63146365 1.134266 1.1523894 -3.2706718 -1.0125895 -0.2393863 -0.1339327 0.7312571 0.2949983 1.2647167 0.38724265 -0.8199569 1.3592479 1.2374234 -2.2010152 -0.98320377 0.19041398 0.40954825 0.17470148 1.8503274 -1.167236 -1.4855555 0.37295732 1.6465273 -1.026012 0.2941501 -0.65696675 0.8980607 1.5189457 2.6126573 -0.2102858 -1.9043776 2.681128 4.141529 -2.4213507 -0.8902881 0.42433816 -0.742129 -1.6814889 -0.33637178 -0.03120877 1.569819 -1.3805436 -0.27876863 0.36750603 1.116158 -1.8785467 0.48934403 -0.17664562 0.6442246 -1.6203405 -1.0260416 0.26188892 -0.3309978 -0.9560544 -1.8759127 1.5504625 0.6912655 -0.8184365 0.18112627 0.2842831 0.96742547 0.6759101 -1.5263432 0.39458215 0.8692302 3.0239265 -0.505806 -1.5678297 2.3794053 0.17313334 1.1125716 -0.15147394 -1.5097163 -1.4768192 2.0312886 0.020596044 0.68994987 0.9021356 0.33054224 2.405971 -1.4977151 2.4056745 2.6631951 1.3691878 -0.7308723 0.9090955 -0.5808895 -0.8322953 -2.8103597 0.95907724 0.1591707 0.23142265 0.8938604 1.1386931 -1.4051235 -0.62524253 1.2319856 -0.82831025
部分 0.40259406 -0.8678501 -0.048079193 1.9706882 -0.49525413 -0.8744753 0.81769115 0.08788073 0.055713497 -0.5243777 -0.82053834 0.47452283 -1.8936515 -0.02508854 0.10785336 0.19208257 1.6964525 -0.7741115 0.4556036 0.13680345 -0.2001538 2.2187815 0.042877592 1.0559475 0.9683687 -0.25192314 -1.828166 0.819833 0.56169367 0.3065929 0.45288885 0.08149881 0.9039992 -0.64385957 0.28575322 1.5465747 -0.4700111 -0.61439246 0.42636967 1.3526747 -0.81819695 0.3427397 -0.83185285 -0.97653615 -0.293437 -0.32738003 -0.37383202 -0.54978114 0.11442337 2.1952922 1.5613121 -0.23064864 0.17913246 1.1374977 0.37451503 -1.1589361 0.6859741 -1.6656318 -0.8488263 3.2326038 -1.3836969 -1.6644217 0.26267684 0.6157798 -0.56287146 0.5448358 -0.86526674 0.6430713 -0.6260333 -0.51553476 -0.21459705 -2.6387937 -0.090018325 -1.6199255 -0.84004873 0.5277874 0.0061418237 -0.98700833 0.9359301 0.30878904 0.89777076 -0.32650778 0.16652983 -0.16428228 -1.1601305 0.51232845 0.04067923 1.5257797 -0.73916817 -0.006885618 0.4468419 1.704917 0.8195547 0.42232254 -0.49821457 -0.52280915 -0.50866246 -0.4133628 0.48197162 1.3610803
外上 1.2318087 -1.2231777 0.7535876 0.94513893 0.5768163 -0.73316747 -1.5821325 0.87915856 0.73542625 1.1709892 -0.5936284 0.5659353 1.3803672 0.6085937 0.85384536 -0.4688039 0.04011473 1.1804298 0.30961373 0.039099697 2.08703 0.17085584 -0.5398938 -0.08525195 2.2300673 -0.0038632874 0.6588691 0.62012726 -2.0035272 -0.9250317 -0.29311427 -2.0550003 -0.90071344 -0.88077223 1.8381418 1.7851391 0.47070086 1.4648534 0.91772974 -0.24791043 0.60919654 -0.9407248 -1.1177464 0.0041973316 0.719263 -0.13732608 0.06709166 -0.31741378 -0.83110857 0.34595945 1.360996 0.6668771 -0.99818695 0.6459219 -0.097339176 0.51519346 -0.8891051 -1.0644491 1.4939882 -0.044553883 -2.1752522 -0.18827605 -0.2806564 1.8571479 1.1750063 0.95535576 -0.1830963 1.8564411 -1.4810501 0.6689414 0.23438919 0.42274567 0.6217085 0.20153081 0.41028744 -1.169811 -3.1431184 -0.9096134 -0.8258368 -0.30480677 0.7115379 0.18132648 -1.1771705 0.4850266 -1.1916285 -0.55520356 0.9646141 1.9622927 -0.20290506 0.37966642 -1.7024312 0.5931692 1.8193351 -0.85752094 -1.4369586 1.2888643 -0.7545909 -0.7460152 -1.1479347 0.0064585507
形态 -0.50657195 2.4043756 -0.5440159 1.7899339 -0.79521143 -0.2288115 -0.596223 0.13859452 -0.8938599 0.23957127 1.2602751 -0.7806284 0.6346388 -0.98948866 1.2847974 0.101680905 -0.8000638 0.84755105 1.1320547 -0.28346914 -0.5626665 -0.5587158 -0.52458686 -0.33827862 -1.5075866 0.9135484 1.3248634 -0.20146787 0.11554471 0.46200642 -0.8258127 1.4090614 -0.85061556 -0.39101478 0.16800906 -0.9018577 0.30583486 -0.46673542 -0.15295751 -0.011279633 -0.013973479 -0.8138815 0.45422018 -0.29966828 0.33681282 0.5482225 0.7716102 -0.27879852 0.41717625 0.5142484 -1.7974008 -1.2416173 -0.13380702 -1.132079 0.21420415 -0.024894781 -1.2984825 0.46639127 0.27136838 -0.5364065 1.9198947 0.68365955 -2.082537 -0.97251624 -1.5927594 -1.0245312 0.356046 0.84565526 2.121043 -0.012689436 -0.5010819 -1.5982482 -0.1422626 -0.32992277 -0.21959457 0.49945801 -0.13159372 1.8932495 -1.8304604 0.058901012 0.948096 0.009879374 -0.26686507 -0.6967224 0.33261225 0.27952075 1.8387192 -0.8553693 -0.02648066 1.1117917 -1.048356 0.91703916 -0.15265912 -0.17771302 1.3743981 -1.1877196 1.2428582 1.0072889 3.456596 0.1775769
纵隔 -0.6932721 -0.37033394 -0.60173535 -0.110657856 -0.22731583 -1.1719887 -1.2578205 0.61201286 0.44483566 -0.9138948 1.8270198 -1.171661 0.9665072 1.2135577 1.4035765 1.0095516 -1.3482542 0.021783598 0.06321684 0.0186733 0.50279474 -0.039776474 -0.07121392 0.23957598 0.5378238 0.15674764 1.0828997 -0.5993403 2.2961774 -0.6377063 -1.8802361 -0.24825153 1.0711892 2.3775194 -1.2880331 -0.46243376 -1.1144592 -0.8388686 1.321136 -0.2578472 0.28145152 -2.0438118 0.66830283 -0.080157585 -0.05907374 -0.84610337 0.38638887 0.89139766 2.0006108 -0.9904568 -0.9387769 0.29755244 -0.21592152 -0.11235401 3.2476676 0.8112086 -2.430811 -0.15272279 -0.38277903 -1.5181744 1.1512847 2.458833 -0.91922194 -1.0589569 -1.3515415 -0.020433554 1.2135615 -2.7318437 0.7893028 1.6987764 -0.02474442 0.24376766 -0.7902723 1.353717 0.7641982 -1.6695596 -2.2482288 1.6591393 0.27001178 0.83646864 -1.5612273 -2.1337442 0.9511591 -1.3130274 0.8043218 -0.4820398 -0.07073225 0.30895087 0.8038269 1.0245193 0.6225016 0.5622989 -2.5085428 1.493239 1.5259163 -0.30663842 2.6192563 2.3145049 0.24033292 -2.7863257
可见 0.3088878 -1.2288108 1.6097553 0.7408918 0.3624596 0.89641386 -1.3594264 1.4453113 -0.47169176 0.08326535 -1.2162477 1.0114021 0.42617032 0.33433 0.7178556 -0.41365504 -0.3392193 1.4570566 -0.21009406 -0.083012186 -0.05917948 0.86434984 -0.75845736 0.37825796 0.7980034 -0.4565495 1.0749149 0.20450094 -1.1878601 -0.17556407 0.31728867 -0.86923033 -0.20302987 -0.18857375 1.1247306 -0.30045134 0.2699322 -0.51178795 -0.49210778 -0.37484786 0.63685113 0.63026625 0.09511427 0.54108846 -0.029529104 0.062244337 -0.33233932 0.579003 -1.511505 -0.5247619 1.4436183 1.5700511 -0.7968945 -1.2174119 0.7421814 0.5393047 -0.83839494 1.5455999 0.2949575 -0.360268 -2.0542116 1.1164109 -1.5665165 1.1229109 1.8485659 0.634108 0.0055981968 0.21587235 -1.690354 -0.7121966 -0.012968253 0.32582408 -0.32315657 -0.18487501 0.23597766 -0.575477 0.1733184 -0.5030992 0.28421193 -0.057264917 -0.90736234 0.2930166 0.06485274 0.6869908 0.42371383 -0.22892769 -0.10376023 0.89542204 0.07129159 -0.63539517 -0.71909434 1.4904236 -0.0044434345 -0.2953206 -0.6639619 2.7649026 -1.1698766 -1.5250282 0.21598248 1.0965642
或成 -0.31361175 0.2161934 1.4984537 0.7572105 -2.925244 -2.4365277 -0.33421072 0.1691225 -1.1800627 -0.30672616 -0.044908956 -0.22666073 -0.39465576 0.93637925 0.6929712 -0.54701805 -1.7434814 -0.7811896 1.6415371 -1.566412 2.2721462 -1.4174337 -0.6349861 -0.041296434 1.5826374 -1.6221346 -1.1681638 -0.38521102 0.67108667 1.4336466 1.2466385 0.5676163 -1.3337771 1.3823925 1.5322769 0.270746 -0.7244444 0.6625964 -0.4228063 -0.69387907 -0.20884432 -0.81116426 0.6651593 0.3542825 1.6855327 1.2489597 0.11063689 -1.8875161 -1.586149 0.3675481 -0.10883242 -1.8334064 -1.6103566 0.97810084 -1.7374167 -1.9165374 -0.22506231 1.5406213 1.3658406 -2.2538986 0.3226386 -1.6918259 1.6478877 1.9176537 -1.2536271 0.85881007 -0.34491485 2.388353 -1.2685276 -2.5914075 1.803454 0.71998924 0.9977918 1.4263521 -2.063814 -0.9666065 2.023993 0.17043646 0.24614659 0.94727093 0.4951377 2.5211012 -2.361085 0.754302 2.5748637 0.49101228 0.30381837 0.9237643 -0.03336961 1.3544273 -2.5741987 0.48676836 1.7247139 -0.036303356 0.42465064 1.928637 0.4548568 1.1720628 0.1135391 -0.34496087
成簇 0.72241133 -0.75435495 3.5837176 0.6834595 -0.7927996 -0.24604675 -0.15339153 0.32182428 0.2278021 -0.12925433 0.96296203 1.0668132 0.7923491 0.46935424 1.5014516 -0.94576323 -0.004899203 0.6847414 -0.46931028 1.6182309 1.7255975 -1.447974 -2.4080029 0.57742107 1.1357688 -1.4931644 -0.77202654 -1.3650023 0.4360503 1.6304784 1.0696037 -1.5304687 -0.46540636 0.607215 2.9660413 0.4476625 -1.0350776 1.6370034 -0.951678 -0.48396468 -0.8984974 0.5475088 0.34322065 0.09188291 -0.46000242 0.96954215 0.38217074 0.3138875 -1.1925968 -1.4657487 0.73155665 -1.4178604 -1.2857794 0.25736666 0.99428695 -1.0205208 -0.87696826 0.8851148 -1.2969304 -0.7824652 -0.19578642 1.4218217 0.93841565 0.12496799 -0.7910863 -0.67992944 -0.35595158 0.9614658 -0.38568807 -0.8719677 -0.19874205 0.5216039 0.31389654 0.43112415 -0.35266024 0.5255118 0.27740467 -0.7781466 2.5558896 1.6118397 0.025620032 1.1696075 0.89704835 3.0241783 1.1157217 1.1106848 0.091345705 2.0805259 1.0518292 -1.337424 -2.124753 0.4555487 -0.36891234 0.4317129 -1.1674048 2.0091484 1.2082934 -0.40685704 0.051798668 -1.1437372
小 0.42608565 -1.6678323 1.6431589 1.0335985 -1.1217663 0.04554437 -1.7262206 0.3207104 0.06960092 0.4065019 -1.16223 0.79951084 0.30527067 0.11775629 1.4768708 -0.7936586 -1.3447409 0.90645486 0.3005715 0.28006515 0.68278724 0.12405098 -0.20692524 0.15616843 0.17277879 1.1512012 0.21445969 -0.7358254 -0.27197313 -0.78479356 0.6087456 -0.124103546 0.25281724 -0.23946668 0.2769531 0.032916397 0.86715037 -1.1807312 0.3961342 -0.22927342 -0.058977216 0.28700277 0.48688737 0.09576322 0.6168736 -0.38728526 0.35464302 0.12925835 -0.31214863 -1.1827537 0.55716085 0.44965097 -1.7185398 -0.45162505 0.70624894 -0.9906638 -0.9234695 1.5940427 -0.51095355 -1.23333 -0.832313 0.077957086 0.0068108262 -0.23322228 1.0971347 -1.4029485 0.22401538 -0.99706066 0.8995011 -0.8199746 -0.12538026 -0.031724367 1.2818594 -0.015347076 -0.28969747 0.6098777 0.53848135 0.19864886 0.87804705 0.9050608 -0.06697952 -0.46042797 -0.049499325 1.8716005 0.7092916 0.59385526 0.17347726 -0.82203543 0.7340445 0.17069155 -0.49724585 0.41345853 -1.100429 -0.39715105 -0.6814878 2.0120523 -1.2072802 -0.12587261 0.022649204 0.33062407
改变 -0.07880392 -1.3135605 1.6510423 0.13484973 -0.9785695 -1.140308 0.05866481 1.6514549 0.31240246 -0.11754921 -1.8472427 1.2629882 -0.66267174 -0.3191541 1.2974875 0.59530264 2.0626845 0.2965598 -0.53254884 -0.9742347 -0.2594644 1.9361385 -0.94005114 1.5556401 3.2217436 -0.09389331 -1.0355918 1.252059 -0.45438313 -1.2725718 1.6944284 0.66706693 -1.8560866 -0.09907053 1.332549 0.19684224 0.48479724 -1.2030972 0.9191055 -1.0503987 -0.2858042 -0.031970534 -0.33932656 -0.07551675 0.7363066 0.015745211 -1.6743367 -1.902573 0.1999258 0.38080683 2.4032643 1.7231702 -1.0632129 -0.19170684 0.57827663 -0.9560297 -0.7885296 -2.5264394 -0.11390523 1.9014213 -1.3807923 -0.098195314 0.21771108 1.5830826 -0.6339183 0.6815508 -0.43904138 0.50583935 -2.65142 0.005535355 0.19231519 -0.00044799235 0.6343378 -0.3737632 0.5244675 -0.8910136 0.7844338 -2.0595126 2.2791452 1.4157033 -0.47077292 -0.12776037 -1.1088797 0.59723717 -1.4023107 1.3959069 0.9024268 0.5143573 0.6910507 0.37976822 -0.65879697 0.85250247 -0.35476255 -0.42998123 -0.8191642 0.5995 -1.6545469 -0.8877336 -0.7363648 -0.46442586
在 1.3424144 -1.075372 2.5875788 0.5081178 -0.8560175 -2.6136844 -1.6676475 1.7315644 0.45573592 -1.6534276 0.6745983 -0.3262079 0.25528213 -2.2395225 -0.7265551 -2.3660736 -1.3946874 1.0515721 2.786398 1.2819513 2.4677026 1.4094226 -2.2589574 0.52653295 0.46628284 -0.10942725 0.30694947 -0.65884435 1.7785354 -0.8493856 0.15419187 0.07300312 -0.15058091 1.34826 -0.7071227 -0.7763104 1.2716063 0.02239443 0.12942542 -2.3292816 -2.5706935 0.0089851525 -1.7359641 0.5755852 -0.09673181 -0.70430434 2.1643724 -1.9832218 -0.4602114 0.4681748 0.6871311 -1.3703843 -2.8638377 0.8937334 -1.7532846 -0.8705582 -1.0661587 1.4291105 0.0145683335 -0.5532981 -0.27996883 0.5371346 -1.408357 1.1402705 0.83202857 0.44918516 0.025424605 -0.73592746 1.667486 -0.43771878 0.037987065 -1.5515853 1.8047895 -0.64300984 -1.7200519 -1.4524416 -0.9331331 -0.13886808 2.7044513 -0.833241 0.27350625 0.20536013 -1.3974549 2.8667965 -0.8378594 -1.5236087 0.77209586 0.4935894 0.9731678 1.567141 -2.2977328 -1.2578474 1.7232206 0.24827269 -0.54842985 2.166967 -0.0058212313 -1.3342973 0.71936756 -0.34221616
cm 0.2528979 -4.1166472 0.5090703 0.7208634 0.46234214 0.24516156 -0.1458844 0.58432716 -0.5071366 -0.65673256 -2.1641839 0.5743666 1.1114049 -0.13663244 -0.2586149 0.18651645 -1.0410882 1.8463788 -1.5891514 1.6203401 0.5678953 -2.378691 -1.7114253 0.49995333 -2.0057065 0.3823354 -0.18343472 -1.4238579 0.54613554 1.113403 0.8286159 -1.4546248 1.0316844 -1.469391 -0.8990505 -0.18776181 1.5749545 -0.54589003 -3.3091066 0.61888975 -0.17147388 0.10609739 -1.6719947 2.0031385 -1.5443685 0.29661202 1.4194373 0.9411537 -1.0984181 -0.54322386 -0.09062328 0.24508399 -0.11037241 -0.91465354 2.1557405 -1.2973695 0.2628161 0.76845735 -1.4079806 -1.3916976 1.4538158 -0.7565928 -3.071612 1.4791348 1.2049134 0.18512012 -0.47441435 0.93112653 0.7514741 -0.18794793 -2.4885921 -0.33128816 -0.16787755 -1.5678538 0.4690053 1.1485593 -0.4798425 0.5130864 0.13159296 1.5365233 -1.5753139 0.4855345 0.050120585 0.3616231 2.0632026 0.29382434 2.7073956 -1.249011 2.602898 -0.6910759 -1.680742 -0.51698965 0.99235 0.49885243 -1.0419369 0.4354331 -0.71537244 0.093354784 1.5289197 -0.9378373
多发 0.23236719 -0.7555729 1.8647878 1.9162381 0.006133818 -0.46347538 -0.9764516 0.58762586 1.7840875 -0.6979618 0.038084295 1.0300125 0.9266003 -0.24315426 0.16286284 -2.21563 -0.18262851 1.2688874 0.5633963 0.5682319 0.8842106 1.1630381 -0.42858577 0.53142136 1.0116987 0.10413192 1.6161888 -0.9108281 -0.29108024 -0.67374986 1.0334674 -0.017593049 -1.499697 0.45228842 0.8059268 0.1435948 0.48848045 0.19242346 0.26121506 -1.6569452 -0.4361139 -0.04481882 -0.5965256 0.44987634 0.013170651 -0.36167493 -0.66977674 0.1403168 -2.5986955 -0.1159192 1.1029911 -0.09184858 -1.7602398 -0.3624388 -0.047879864 0.36240655 -0.5256133 1.4666914 -0.46553952 -0.42115703 -2.009879 0.5951686 0.010584466 1.3595185 0.29211727 -0.39835253 -0.33502164 -0.41319618 -1.0422064 0.7129993 -0.06301927 -0.4256405 0.4470886 -0.7479125 0.09172386 0.49780467 -0.78422785 -0.0018965191 1.031399 0.4636025 0.5093452 0.17968951 0.33346367 2.5352798 -0.5918459 0.648833 0.8956659 0.010046353 1.2717141 -0.07550742 -1.6011623 0.44061536 0.057704695 -1.0377554 -0.5544977 1.3971316 -0.5165103 -0.65144116 0.19081569 -0.11668868
局部 0.34954637 -0.03042054 0.5946558 -0.63968766 0.33220518 0.45851064 0.9912555 0.6625942 0.009060574 -0.110919796 -0.74084634 0.5831533 0.6598287 -0.2643587 -0.7549992 0.6122732 1.4408851 0.51242256 -1.2252383 -0.48304838 0.3818299 0.16341099 -0.5377376 2.133256 -0.37228155 -0.70341647 0.10998435 -0.28019178 -1.6190256 -1.3215008 0.13384496 -1.1556531 -0.1501709 0.08948849 2.0709734 0.9650688 0.5065749 1.0297608 0.17041023 -0.10818598 0.14501637 0.77654225 0.22919975 0.5608675 -0.7736259 0.5271314 0.15504916 0.27478057 -1.997983 1.0574332 1.202501 0.2574609 0.040621623 0.48100036 -0.9272395 0.5066342 0.17830333 0.23944525 0.6990712 0.07633311 -3.096434 0.99329984 0.8152489 0.59242207 0.38502508 -0.39950618 -0.20890754 0.39628515 -0.740746 -0.626824 0.6148042 0.10504216 -0.0021672908 -1.3033459 -1.2511337 0.45432496 -0.5215152 -0.5545219 0.27230728 -0.8734442 -1.1574702 0.4100317 -0.5582844 0.59504163 -1.1803426 0.15635914 -0.5014152 0.3874805 -1.4633144 -1.8202395 0.81245524 -0.93732256 -0.051484987 -0.9547687 -1.1174271 1.2279758 -0.7327474 -2.1860623 -1.9262604 0.5115961
右 0.20492783 -0.012016301 0.08711198 -0.565306 -0.799497 0.80088943 0.14323322 0.7006046 -0.35411194 1.1147088 -0.22685072 0.8411459 -1.3441188 0.66703784 -0.24187362 -0.5935616 -0.038437355 -0.9705657 0.17212118 -1.5069864 0.69208455 -0.3633391 0.68309146 0.0447643 0.55462426 -0.2796444 -0.7383877 -0.75906473 0.1942915 0.2252866 0.6713245 -0.014652537 0.7189901 -0.5389633 0.599424 -0.15601556 -0.3113479 -0.39813054 0.12851569 -0.47522458 0.8250902 -0.9329141 0.39084163 -1.465986 0.09410777 -0.20477295 -1.3023577 -0.20450893 0.70149046 0.3526077 1.0562315 -0.27931735 0.332519 1.1472254 -0.97352403 0.004235772 -1.0152408 0.8305663 1.740858 -0.27531594 -2.4907408 0.5401684 0.2509978 -0.6141982 -0.6809708 -0.30636343 -0.6569777 -1.8570503 -0.54796475 -0.43445793 0.3121765 0.8080247 0.3296665 -0.522551 0.36334664 -0.05766768 0.46427545 0.17131028 -0.2317218 -0.69149506 -0.24051951 0.54325527 -0.70361257 1.0972204 1.005956 -0.7923447 -1.8343158 1.2063757 -0.29625708 -1.4121188 0.97431093 -0.05293034 -1.0053957 -0.841915 0.07063799 1.4300243 -0.20916878 0.3734646 -2.5891933 -0.6644523
象限 -1.1231875 -1.2645828 0.8174065 0.38411763 -0.8912359 -0.18619853 -0.31168988 1.9107028 1.3937058 -1.5904748 0.3739547 1.1287389 0.6346883 1.98013 1.1555824 1.2730882 1.9600393 1.5128477 -0.08151423 0.7127589 0.9046377 0.63761747 0.638212 1.3444666 1.6156962 -0.09167275 1.0537986 -0.6090044 -1.1369163 0.22342221 1.3538811 -0.89218634 -1.9098948 -0.21911356 1.7114902 0.4429764 -0.7100188 -0.50670755 -0.8459214 0.29880115 -0.69592685 0.025641587 0.38226512 1.3977523 0.27456632 1.154293 0.4255725 -0.63362277 -1.7061819 0.1308323 0.57313377 -0.19958508 -0.039317068 -0.8689473 0.34471762 1.5333946 -1.0697495 1.527263 -0.3057563 0.6699416 -2.5515451 0.13068566 -0.07564083 -0.09745776 1.9747846 1.4342029 -0.18705463 1.4472473 -1.9588125 -0.7812206 -0.11456431 0.8220002 1.0026093 -0.0041984958 -0.040553957 -1.0848835 -0.26197475 -2.099093 0.44808677 1.599382 1.4439838 -0.8380346 1.0069051 0.20637992 0.3379805 0.85465354 -0.04222843 -0.7436012 -0.8805031 -0.86018527 -1.6964204 0.81160885 -0.8670719 -0.4785141 -1.6838226 1.9183445 -0.15088683 -1.4317489 -0.30148858 1.2422324
散 0.20641261 -0.5356981 0.2813076 3.1075175 -0.7090066 0.88367796 0.4240795 -0.19174361 2.014514 2.0356905 -1.1088327 0.40987003 1.0529368 1.3782463 1.1342514 -1.3957705 -0.13958171 1.2220261 0.10648203 -0.113262214 1.5151587 0.16799597 1.8128394 1.7495692 0.42007726 0.26313227 1.8588344 -1.2207364 -1.3956504 0.10330108 0.985116 0.6661342 -0.58354557 -0.122890644 0.90056074 1.1806777 0.37885904 -1.4396274 0.44631702 -2.5106292 0.33176425 -1.3001016 -0.71283025 1.1238593 2.268725 0.52284235 -0.75230753 1.1491249 -1.6284667 -0.52517635 1.0172268 -0.901474 -1.8949457 2.2215252 0.15959783 -0.91587526 0.16389492 0.7218661 -0.19505858 -2.1907892 -1.9717557 -1.8228961 1.3872635 2.4985516 -0.97442156 -1.4175308 -0.75049084 0.42121282 -2.436354 0.9520799 -0.13007538 0.11682256 -0.3143667 -1.2551162 -0.46335828 1.1214365 -1.5134863 -0.25242892 -0.056362454 2.8787868 0.6916788 0.8948823 1.1649272 0.8378732 0.7904027 2.8104653 1.6952868 -1.6935116 0.45467916 -0.82565486 -2.2776484 0.016285768 -1.0353056 -1.421707 -0.07194329 -0.53537405 0.11935209 0.5836515 0.5710787 -0.7296879
术后 -0.48132893 0.59363824 -2.8470774 -0.35962644 0.50788814 -1.2355353 1.7772727 -1.0332851 1.7524229 -1.9501271 3.0349524 -0.7670935 2.2009194 1.9103808 0.2721714 -0.011466759 1.7000592 -0.35371536 -0.7847339 -0.28783605 -0.5486271 -0.13531192 -0.61951864 0.9993476 0.615355 -1.9324236 -0.9208098 1.4595941 2.7068338 -0.07256442 -1.7446518 -0.1739383 0.88827634 0.11879632 1.2843355 -0.5631774 -0.9536316 -0.036029577 0.16206796 0.047196012 -0.4696098 -1.0510354 -1.1965727 -0.3183417 0.031182386 -0.44762444 0.1439789 -0.43527398 0.5465545 1.6470511 1.3334641 0.21498483 1.8692029 0.30070397 0.99426657 1.160277 -0.7047552 0.24754098 -0.80702746 2.2018385 -0.76954114 1.7598658 2.9181452 0.60531104 -1.0081758 0.8857639 0.4494795 -1.1148882 -1.235159 0.40787548 1.7531824 -0.040099893 -0.5805108 -0.5493005 0.3165202 -1.0299399 -1.750661 -0.295349 -0.22886267 -0.7529306 -1.2336024 0.2857083 1.3312256 -1.0386225 -0.6161222 -1.5806402 -0.6966248 0.5902443 0.426092 0.3777174 0.76426804 -0.44223502 -1.3736275 -1.1440643 1.3011638 -0.4999388 -0.30495918 2.3810484 -2.0704618 -1.1875427
边界 -1.7656009 -2.4802244 0.5995805 2.002564 1.6094617 3.2204087 -1.0684927 2.2818568 -1.2861351 -1.1103557 -1.6695232 1.4441054 1.4580454 -1.08951 1.249496 -0.06440262 -0.3648964 0.77378994 -0.13419467 2.798339 -0.20034973 -2.867165 -1.2157143 0.29978612 -0.045832943 -0.40424028 0.6994378 -1.9283553 -3.104511 0.6364617 1.3008219 -3.9787667 -0.099650145 -1.6830397 2.1613772 0.7951941 0.930736 -2.6907794 -2.1346352 1.4709711 0.6635926 0.7201839 0.33803445 -0.12108394 0.109051086 -0.607884 -0.41735297 0.7725254 -1.9119291 -0.6656766 0.49704614 0.5974561 -0.7641236 -1.9438559 0.39463785 0.7972113 -0.4073441 -0.36937708 -0.6630481 -0.4372156 1.0805527 -0.90694034 -2.1345642 -0.07680799 1.5566663 1.5795462 -0.41884395 1.1887274 1.7916003 -1.4673221 -2.3497732 1.855489 -0.74840206 0.45063722 1.8867133 -0.105951756 0.3925544 -1.6869402 -1.4718394 1.4657059 0.2772644 -1.1240488 -0.11876081 0.8422427 -0.80149037 1.1329141 0.4579398 0.6056326 2.96666 -0.79715735 -0.35531634 0.42236307 -1.0048654 1.4372565 -1.2099413 0.09632757 -1.1903011 0.45238286 0.17499235 1.535218
为 0.44190627 -2.9698472 0.30831313 0.7666316 1.201917 2.495851 -1.4653797 0.66267014 -1.9439837 -0.09338312 -1.2502539 0.3718614 1.7563859 -0.7632691 0.27101862 1.4351254 -2.055599 2.3690128 -0.12630315 0.7843717 -0.007564101 -2.7516913 -1.6412399 -1.3562237 -3.100041 0.7335279 1.7750369 -1.4641087 -0.55060875 0.690652 0.92464185 -1.4809693 1.2902768 -1.6468 -0.6842106 -0.7851185 0.89674044 -1.6151637 -2.5966024 0.79433686 0.7597064 0.77192223 -1.0375321 2.4385147 -1.2715955 -0.18215138 1.1175162 2.0916345 -0.9853196 -0.9622321 -1.2135226 0.480576 0.3321528 -2.3207464 1.1703854 -1.192972 0.03229818 0.46961236 -0.4094674 -1.2186894 1.8319771 -0.5848234 -5.041569 0.7390536 2.64465 0.8625959 -0.73781925 0.6360443 1.0328202 0.23219158 -2.3947012 -1.0294634 -1.1988347 -0.15093395 0.103476785 -0.13167392 0.35952795 0.89929944 -1.99406 1.3302183 -0.43628612 -0.97801393 -0.3252531 -0.030578107 1.6679653 0.03948858 1.8855708 -1.3358704 1.8951563 -0.17350557 -1.4552139 0.613263 1.117651 1.0708269 -0.93649757 0.18946686 0.12087184 1.5005139 2.875873 0.52528626
上部 0.4469329 -1.087768 0.1737425 0.5186069 0.24521352 -0.42791167 -1.3891318 0.22808559 0.81908417 0.48458946 -0.7955491 0.87367725 1.1279627 0.07603371 0.75933063 -0.64812547 0.51934224 0.8433305 0.3512437 0.3542781 2.0573313 -0.46749786 0.23672846 0.006244695 0.74034774 0.9513498 0.75534016 -0.52776104 -0.742015 -1.1634603 0.4763107 -1.3611598 -0.40517926 -1.0890996 1.4583424 1.0318186 0.8177275 0.6561621 1.0321262 -0.18190141 -0.1020016 -0.6964304 0.11393837 0.45793638 1.1641043 -0.41389945 0.45617476 -0.08318514 -0.41617295 -0.40696287 1.1021962 0.17817836 -1.3765756 0.5121574 -0.9290469 0.5640453 -0.54234564 0.35566306 1.1605076 -1.2514521 -2.4044247 -0.7183154 0.118099056 0.19614317 0.74476224 0.14530292 -0.8309008 0.297549 -0.6365701 0.3809418 0.24643743 0.7098302 1.7266717 -0.50205487 -0.018110892 0.4795935 -1.6807778 -0.3373253 -0.23914267 0.12094017 0.82906646 -0.18077558 -0.7727241 1.3272322 -0.826095 -0.30482715 0.57315344 0.04004489 -0.51328033 -0.18346116 -1.0711312 -0.50011176 0.6774622 -1.6090381 -1.1082299 0.97773075 -1.3449242 -1.3157969 -0.97378933 0.022234019
退化 -0.81124866 0.32038757 0.39330906 1.1130044 -0.52721846 -1.0512332 1.1339109 0.79451835 1.9020469 -1.4869471 -1.1456027 0.03136629 -0.12666099 -1.6093597 0.21624729 1.2323252 2.7976518 -2.2747266 0.29469875 1.3838266 -0.6047691 1.9805986 0.7681644 1.2513944 3.632448 -1.1440642 -3.5234628 2.3749564 -0.41188413 -0.3988305 1.3615029 0.30222574 -0.6644348 -1.6545434 0.38768685 0.690414 0.21856825 -2.1714358 -0.3840501 0.7899893 -0.9935891 -1.00136 -0.6877889 -0.68132573 0.20487016 -0.86894095 -1.4787705 -2.2269564 -0.26087758 2.8808935 2.2143712 -0.43723968 0.1256319 1.6098642 1.0419554 -1.5681882 0.4579931 -4.0628576 -1.5817952 4.6942697 0.0053543514 -1.7465217 3.817005 1.0095329 -1.565837 2.0634573 -0.004378179 1.4779536 -0.093277484 1.4305202 -0.28618303 -0.431204 0.6423604 -0.49878937 1.0281944 -0.9028686 -0.5783606 -5.2449646 2.5072954 0.65448004 0.9063453 2.703727 -0.7398142 -0.4489823 -2.4503214 0.28712204 2.3574197 0.09935396 1.13653 0.39407897 0.50826454 -0.13706614 -1.2287374 -0.004252596 1.0811529 -3.5748277 -1.5677365 1.178379 -0.30418357 -0.47197267
条索状 0.7446898 -1.5119294 -0.13131912 1.9543654 -1.3200504 -0.9102072 1.4701988 1.0352907 2.3604817 -2.4579139 0.3045142 0.46498874 1.2669905 1.2528797 0.4721013 0.5581673 2.3341396 -0.21450259 1.4036837 0.7047923 1.0721582 3.2869275 0.93635577 1.8783246 4.264319 -1.9386632 -3.1563816 1.1839544 1.9936043 0.7997085 0.52350724 -1.2961757 -0.77143127 -0.3365238 2.5396898 0.24333267 -0.024448954 -3.9335632 0.6120692 -0.05517361 -0.99126256 -0.6951815 -1.0056019 -0.6260794 0.69679004 -0.2825091 -1.2523673 -0.60999805 -1.0305567 2.617666 2.5224795 -0.71330434 0.008174501 1.5253686 0.41917434 -0.7715758 0.19382697 -0.04213755 -1.0477941 3.1447265 -2.8108084 -0.74010396 1.4807465 1.7275119 0.1418685 2.3226132 -0.015278206 0.571714 -0.018861659 -0.085361704 0.23064248 -0.73873067 -0.31044656 -0.5834178 0.67666274 -1.2132483 -1.6296701 -4.06158 2.847863 0.7360034 0.18643087 2.0259943 1.2576039 0.9640263 -0.24324259 0.7979203 0.048121903 1.3795844 0.7893708 0.29172125 -1.6598945 1.0808611 -1.1700764 0.457472 -0.6088514 -1.3836472 -1.0651897 0.254176 0.33754635 0.8211345
约 0.87552196 -2.0102644 -0.1043391 1.6837642 0.31062418 3.7662385 -2.9883864 2.2480745 -2.2381053 -0.087823614 -0.5898998 0.9011504 2.0321362 0.61996764 0.8800768 1.9973058 -1.1199211 3.1560652 0.8567909 0.22840053 0.37029287 -2.398039 -0.42764732 -2.0380216 -2.7623727 0.6743786 2.5745676 -1.7484856 -1.8182667 -0.080338694 1.3520216 -1.2680988 0.64499533 -1.6460943 1.3513609 1.4228511 -0.19095857 -0.6211191 -1.1609164 1.6988274 2.212393 0.9683328 0.09684844 2.1809661 -0.31982285 -0.6163858 0.57121587 1.7720705 -1.4107089 -0.65626097 -2.2663927 1.0997066 -0.24279815 -1.6850514 0.5797451 -0.5786935 0.5191162 -1.4556357 0.8774122 -0.43043795 0.842614 -0.16247003 -6.859877 0.91307795 2.2615669 1.5776149 -0.13299626 1.2889247 1.345897 0.4431269 -3.1902177 -1.5106589 -2.00959 -0.7873074 1.0366265 0.39094028 0.93032426 1.2576953 -2.6644123 0.7760508 -0.22384764 -1.2670165 0.6207128 -1.0168178 0.1438753 1.255442 2.054358 -0.36090368 0.71655047 -0.1640718 -0.5873083 1.250885 1.7427125 1.6943015 -0.9127355 -0.3057687 2.256447 2.0754614 4.0893025 1.5693526
深部 0.10010695 -2.2046304 0.17798784 0.633322 -0.44632477 0.2908285 -1.5885891 1.3347392 0.5203932 0.70710295 -1.0206758 1.7493286 0.6515046 0.11177778 1.8053123 -0.314862 0.99444073 1.1581639 0.5741296 1.116996 1.3226905 0.8429112 1.275362 -0.48615384 1.3264165 0.15848316 1.1834092 -1.7444581 -0.6908621 -1.5113297 -0.31931156 -1.522107 -1.084122 -2.364177 1.2398263 1.5330667 1.2818867 -0.7116483 -0.34894553 -0.7014664 -0.15626937 0.22562496 1.4211779 0.5329213 0.61117613 0.011019002 0.08625192 0.4464536 0.15875779 -0.081466235 1.2659574 1.2668369 -1.7996762 0.07790438 -0.28864145 0.17653984 -0.9355701 1.994681 0.31195602 -1.6960601 -1.6895555 0.722821 -0.9518648 -0.54434335 0.91863126 0.5850846 -1.2307309 -1.5063516 0.9197084 -1.084918 -1.0275172 1.3632733 0.9882723 -0.03346907 0.89183915 -0.6413943 0.14766973 -0.84627795 0.99378943 0.67494375 0.24362926 -1.1939653 -0.8411212 1.2827679 0.8211871 -0.46341476 0.3421088 -0.067257166 -0.4514551 -1.2288208 -1.495575 1.0679724 -0.58821124 -1.5732048 -1.4775345 1.8972052 -0.7614962 -1.7346866 -0.8479656 0.4535006
膈 -2.229428 1.8848917 -2.3567703 2.6364682 -1.0315449 -0.1339235 0.92229176 -1.1134065 -0.9730697 -0.96221614 2.5352752 0.6180316 0.33753103 -1.6330482 1.9720609 -1.4774868 0.110457405 1.606523 0.078993306 1.8903868 -2.85029 -2.0037293 -1.7407281 -0.80577886 -1.885351 -0.943902 -0.23637617 -1.5406274 0.22605287 -0.15937144 -1.6634929 -0.7666541 0.25875363 -1.7801793 2.0147297 -0.21220198 1.9109149 -0.18277659 -1.7975447 0.5125804 -0.85190266 1.3305925 0.52275646 -0.57687616 0.6484128 -0.16813599 1.3606641 0.83325243 0.11546689 1.3935779 -0.5191044 -1.056021 0.12089149 -2.4827523 2.011942 0.66585886 0.17958722 0.38230363 -1.6918066 -1.1555866 3.972678 -0.1791397 -0.318132 -1.0345372 -2.2366412 -1.1949403 1.0728762 0.46174034 5.617665 -2.886137 0.1522615 -0.8672084 0.2085072 0.6931546 0.30614585 1.9973474 2.342049 1.2071953 -2.5197628 0.12156769 0.7565019 -2.0606298 -0.6345117 -0.82869965 -0.056297313 0.12936436 3.0947926 -1.3198489 7.1749673e-07 1.4513042 -0.7163352 -1.0977687 -1.445383 -0.53625375 1.8916928 -1.4123731 -0.053613618 -0.30616722 2.8136828 0.71856755
见 0.301564 -0.59677756 1.5596093 -0.012956054 0.65187985 0.7647998 -1.0714433 0.44614658 -0.8907762 -0.080711655 -1.3524022 0.11503939 0.4311329 0.51183623 0.396735 -0.06934512 -0.06673449 0.5104736 -0.24864492 -0.43976516 -0.119093046 0.18954529 0.18275385 0.56844586 0.27189326 -0.1898874 0.74018186 1.2302022 -1.1812553 -0.7646311 0.1391714 -0.34978265 0.045683328 0.59125876 0.6368289 -0.4789546 -0.5508607 -0.19125582 0.37018853 -0.22488019 0.7992506 0.31315887 0.6544005 0.2960014 0.11732528 0.09000496 0.13166134 0.037917357 -0.8185488 -0.6908705 1.0715716 1.5204988 -0.6699717 -0.8722931 -0.08261955 0.16581368 -0.61659116 1.0952221 0.1719158 -0.15779026 -1.3015133 1.3621906 -0.9191706 0.39831445 1.9058424 0.64427465 0.06254004 -0.34580082 -1.3271548 -0.42759395 0.61854017 0.42540294 -0.18524736 0.31853062 0.12724493 -1.2798011 0.2772126 0.2305771 0.57613367 -0.66464823 -0.79226255 0.36980274 -0.34008795 0.5694595 0.185618 -0.6812345 -0.74574804 0.8904202 -0.29097986 -0.30181566 0.3310369 1.5549273 0.33852723 -0.5079195 -0.87166166 2.1976655 -1.1062098 -0.7701731 -0.6551163 1.3378874
光整 -0.536544 0.8748984 -0.29034984 1.6307653 -0.79918724 0.4415 0.09445821 0.6891058 -1.2647471 -0.34796965 0.39141354 0.5656961 -0.5906017 -1.1278086 1.8446217 -0.68361634 -1.0087732 1.4674053 0.77470374 1.0833776 -0.25114125 -1.4704005 0.0046060644 -2.073849 -0.6668933 -0.38963494 -0.82367057 -1.0032909 1.0712322 0.10289424 -1.5254714 0.55275375 -1.4165944 -1.4948924 0.89832175 -0.86242473 1.1113046 -0.48642623 -1.3558294 -0.63096434 -0.37814608 0.2793047 -0.19832078 -0.39486688 0.6711551 0.33494163 0.8810208 0.5188436 0.2999909 0.92681587 0.46393687 -0.35885128 0.124922514 -1.7410817 0.9806156 0.5610868 -0.43322006 1.5795311 -0.22740681 -1.0861967 1.9076021 0.57459533 -1.5365419 -0.10482035 -1.6998675 -1.1341108 1.0434265 0.035736278 3.805255 -1.0877292 -1.1357465 -1.3226564 0.3102848 0.070213296 1.1890196 2.0318406 0.753084 0.7707018 -0.77204233 -0.48326147 1.1274251 -0.7860068 0.057764947 -0.72965354 0.735007 0.72283906 1.9059598 -1.6329674 -0.6245528 0.9418109 -0.6693896 -0.3280377 0.054545537 -1.2338616 1.4872012 -0.29891852 0.70424277 -0.3994503 3.3144891 0.65061724
略 0.16567735 -0.054990944 0.033483464 -0.7964909 -0.23381653 0.28641307 1.0659965 -0.48292667 -0.09064516 0.06289237 -0.5532886 -0.5447783 0.5730793 0.5269971 -1.184921 1.3456053 0.3915635 0.5369911 -1.0233619 -0.6997066 0.0050370274 -0.8129922 -0.5412458 2.047007 -1.0094198 -1.0343578 -0.5763292 0.26805452 -0.5438569 -0.54057044 -0.23122524 0.14354517 0.2645138 -0.18620625 0.68961304 0.3405381 0.39113298 0.24099845 0.21086033 -0.013581307 -0.21364766 0.22262089 0.1490728 0.6009556 -0.6007546 -0.15039629 0.87109417 0.08708431 -0.7133973 0.799569 0.21652386 0.3787299 0.5778843 0.7984973 -1.3707145 -0.6376603 0.08991482 -0.49159804 0.523691 -0.035511285 -1.0636849 -0.016882585 1.3126516 1.3643061 0.71029156 -0.5199574 1.108302 0.9445853 -0.105391465 -0.536026 0.16849428 0.15819204 -0.16105238 -1.4876539 -1.7995558 0.16239202 -0.11672803 -0.07060535 0.27339628 -1.264851 -0.83519524 1.170791 -0.7403678 -0.93229634 -0.5800468 -0.26366514 -1.0879467 -0.6999738 -1.7705058 -0.91656053 1.072722 -1.5373394 -0.011566395 -0.88017803 -0.6788381 0.17783849 -2.0368965 -0.8424531 -1.6833447 0.14418362
角 -1.7652 2.5495536 -1.7590202 3.6743374 -1.8627943 -0.25217137 1.2049391 -0.3399786 -1.1659007 -0.32524312 1.4212923 0.5578625 -1.1173841 -2.0199082 1.5484095 -1.3914375 0.31667024 1.0670698 0.69704694 1.5821186 -2.5636022 -1.7163022 -1.4582627 -0.9285622 -2.0746505 -0.6076788 -0.15876186 -0.83594835 -0.2798601 0.6325407 -1.6899474 -0.29337963 0.180604 -1.708256 1.4083308 -0.18112034 1.7599248 -0.5523092 -1.7563461 0.71623015 -0.7285958 0.5494004 0.4857939 -0.6910968 0.95686525 -0.054483023 1.3410896 0.54964423 0.28033096 1.0647207 -0.1624984 -1.4355184 0.11851447 -1.8405789 1.1863607 -0.17915653 0.5326834 0.1256144 -1.0670832 -1.2060363 3.5155728 -0.36082458 -0.94964045 -0.8806774 -1.685955 -1.532399 0.55010194 0.52645755 5.100379 -2.3001475 -0.61823124 -1.3926679 0.14407074 0.45353112 0.37446365 1.9289336 2.1313934 1.269526 -3.0577588 0.15049133 1.6958723 -1.2664722 -0.55019706 -0.77169126 -0.073833406 -0.18113096 3.1088269 -0.12236114 0.22037514 1.0449693 -0.274868 -0.43565434 -1.5079997 -1.260346 1.3756497 -0.94183666 0.52239597 -0.15732943 1.9353765 1.0562893
分布 -0.5007167 0.25184324 1.4933618 0.7216462 -0.6534866 -1.6845863 -0.06550447 1.0468996 1.8933687 -0.6413684 -0.6122037 1.1068687 -0.10827883 -1.6233647 -1.0521157 -1.3445662 0.055685177 -1.3372334 -0.48963985 0.41592014 0.80576044 2.8536084 0.15171902 0.8292573 0.98012066 0.06320449 -0.1955752 -1.0344995 -1.3480492 -1.0469959 -0.72387964 -0.91369915 -1.6883394 -1.1366957 0.22619829 1.013465 1.9347506 1.4590962 0.22152205 0.7097303 -1.4547348 0.43193975 -0.84655136 0.07467373 -0.67223305 -0.99251014 -0.9324172 0.40622634 -3.0147815 1.1953989 0.3168824 -0.67645895 -2.0924153 0.21610385 -1.3116963 2.019856 1.0650785 0.70957005 -1.3279058 -0.53132325 -2.1648545 0.286022 -0.17419662 0.07634186 -0.42828014 -0.9250597 -0.002364647 1.9677417 0.26798567 0.3363337 0.17940031 -1.0457057 1.0185897 -0.6059127 0.28916436 2.3636465 0.36581603 -2.5520961 0.78669035 0.47458914 0.9102918 1.626696 0.3099768 0.9350602 -2.4822037 0.79783845 1.7591282 0.87656844 -0.07537301 -0.98935384 -1.430937 -1.4486117 -0.15002447 -1.4827778 0.49584156 0.5314039 -0.19093497 -2.3815012 -0.6002659 0.20077424
增宽 -0.081120454 -1.2519346 1.0741903 0.31303263 -0.97746986 -1.1468482 -1.0561726 0.05232791 -0.46509933 -0.30575073 1.91398 -1.7191759 0.078829676 1.6269244 1.1845593 1.5737652 -2.4560375 0.94122547 1.0762889 -0.07045888 0.2170043 -0.7109191 -1.4600979 -0.6428756 1.8870736 -0.89147186 0.18255176 -1.3502785 2.5899472 0.89672416 -1.3706862 1.0166432 0.37413207 0.71917 -1.3290932 0.46588352 -0.58163434 -0.68991816 -0.12467879 -0.73573804 -0.28607792 -1.1342283 -0.44909877 -0.09571307 0.17351323 0.98701805 1.8135078 0.80502456 2.4100027 -1.4089822 -2.1545122 -1.3336802 -0.1279619 -1.2416538 3.4971645 0.42700914 -2.2948246 -0.54638916 -1.128559 -1.9924628 3.1119404 0.9555075 -1.9867384 0.38541538 -2.4660852 -0.4064765 1.9483074 0.081905656 1.213623 1.8627194 -1.1625478 0.24683636 -1.0863459 0.6937415 1.8137424 -1.4553943 -1.4493768 1.6713228 0.13749547 2.3104827 -0.9167762 -1.398661 0.9700966 -1.5563506 1.9807957 0.13542145 0.66182727 -0.5387419 0.49702147 0.88154024 -1.4117476 1.5920383 -2.3161397 2.298309 1.568263 -0.9278056 4.612851 2.4195812 3.7885654 -3.626545
气管 0.22951023 -0.81114596 -0.74798965 -1.0099701 0.48408663 -1.2096481 -0.23175494 0.21061802 1.2328249 -1.0684551 1.9072095 -1.5227281 1.2088878 0.8869213 1.2015846 1.1328789 -1.7972755 -0.7743498 0.12918532 -1.2795691 0.30970427 0.6879223 0.6992114 0.541686 0.64328504 0.22060136 0.96492666 0.21559943 2.6915643 -1.3771187 -1.7602749 0.9437224 1.1717241 2.608118 -2.1207778 -0.9955755 -1.4504255 -0.51506245 1.2458745 -1.4098394 -0.17305367 -2.8735025 -0.33970192 -0.15804803 -0.024330724 -0.45962957 0.35621327 0.79100966 2.1982238 -1.2513623 -0.10542458 1.0855643 -0.021222377 0.8838063 2.8173156 1.0108885 -2.356165 -0.2660481 -0.1804887 -0.41007942 0.23768778 1.7924714 0.4401917 0.03728017 -1.2063136 1.0077516 1.0000468 -3.073792 -1.0226997 1.954993 0.8106492 -0.35173392 -0.784585 1.7720065 0.4750434 -2.1059473 -1.9678484 0.9293875 1.3360772 0.5300621 -1.9724495 -1.4649903 1.1147147 -0.44764137 0.8136783 -0.18042003 -1.1972125 0.6298792 1.2178785 1.014927 0.22863875 1.5134288 -1.3510928 0.30858716 0.79855967 -0.16722389 1.6375166 2.9854765 -0.8662322 -3.2513483
移位 0.059261598 -1.6303877 0.864953 -0.42832276 -0.85021675 -1.5327531 -1.0995356 0.30610868 0.5746301 -0.6407021 2.096901 -1.9532479 0.31462035 1.9359524 0.9636938 1.6939657 -2.538348 -0.1076555 0.71660393 -0.909639 0.8094768 -0.49273232 -0.8559973 0.015248855 1.6611693 -0.73870856 0.4046603 -0.8422567 3.0416758 0.42169583 -1.2101572 0.78300756 0.6716145 2.1437843 -2.01253 -0.014137674 -1.5076331 -0.520923 0.6488545 -0.8797413 -0.07198581 -2.3285618 -0.52927375 -0.1109285 -0.1630295 0.5484945 1.5326952 0.99877924 2.7144074 -1.9231321 -1.6261714 -0.31784764 -0.3411794 -0.21691832 3.6967385 0.47035128 -2.5871348 -0.62052965 -0.79491735 -1.7894828 1.7457542 1.2275769 -1.1092838 0.5740363 -1.7226101 0.16367817 1.8634771 -1.3791312 -0.3592605 2.2263558 -0.26469308 0.31898668 -0.7401154 1.3923513 0.91569036 -2.1211188 -1.8883767 1.4953368 1.0609505 1.8485979 -1.9809242 -1.4567219 1.2229035 -1.2287279 2.015924 0.13607043 -0.59948015 0.23228109 0.99047333 1.1213582 -0.8252338 1.5511141 -2.3512208 2.3796825 1.2172937 -0.71988136 3.6214638 3.3589017 1.6273707 -4.313271
居中 -0.049387384 -0.9806213 0.6598456 -0.8560055 -0.067906 -1.5322716 -0.91539717 0.1882067 0.8082905 -0.26753104 1.5611786 -1.9246209 0.6428692 1.7410806 0.5417575 0.8590189 -1.7914764 -0.5619636 0.42033467 -0.91941917 0.97398716 0.6335391 -0.090132356 0.40954873 1.3842807 -0.14835505 1.0004101 0.0113308085 2.5909715 -0.40320298 -1.2686303 0.8509829 0.95268524 2.4907448 -1.9303758 -0.32362533 -1.4992808 -0.87622625 1.4764783 -1.0870992 0.014278112 -2.2668304 -0.23116426 -0.19485319 -0.2832061 -0.073485136 0.7171213 0.9168831 2.4968538 -1.8205377 -1.0693797 0.12284539 -0.32659248 0.33048767 3.2460434 0.5135439 -2.459228 -0.008683561 -0.34395978 -1.3050092 0.5469263 1.8010762 -0.7896923 0.03930402 -1.2432659 0.6604721 0.8791793 -2.4760084 -1.0988212 2.315794 0.17147219 0.23638366 -0.7888687 1.5730482 0.51327807 -2.472417 -2.245574 1.7086822 1.3252848 1.3829087 -1.8642485 -1.1200453 1.1128312 -1.134035 1.6602674 -0.6212703 -0.79730654 0.2784395 1.06157 0.77488023 -0.12534507 1.7055725 -1.9343841 1.578873 1.1089693 -0.043382067 2.774064 3.2827463 0.047360178 -3.8817177
肺门 -0.88857913 1.7348669 -1.2953048 3.219161 -1.5986352 -1.3425622 1.2315408 -0.6743513 -1.1836616 -1.1565578 1.677734 -0.58069384 -1.558432 -0.089828715 1.3492844 0.37770513 0.25878504 1.8641902 0.028948035 1.8462539 -2.0715597 -1.451526 -1.4431587 -0.43838918 -0.9977782 -1.2178191 0.6665488 -0.2228158 -0.5070659 0.51287764 -1.896087 0.2151923 1.8050293 0.0014586189 -0.012438891 0.2109003 0.7483841 -0.77496266 -0.69568604 0.37118042 -0.30670753 -0.05874716 1.1201408 0.35689753 1.1439204 -0.50932586 2.6178668 0.96394783 1.352316 0.6240363 -1.0151086 -1.5417358 -0.19501598 -0.7592013 1.2962382 -0.8530458 0.79190767 -1.5618819 -1.7400311 -1.5115823 3.9411805 -0.72507524 -1.1204207 -0.29129642 -0.38461903 -1.1128107 2.112861 1.3419802 4.197319 -0.02218845 -0.65369076 -1.3960524 -0.119349584 0.34927654 -0.25718722 0.38066962 0.81206876 2.4477153 -3.0162265 0.39366823 1.2961248 -2.2035284 -0.8671674 -1.7002401 -0.5769711 -0.6574632 2.4116545 0.7666828 0.042462904 2.3058016 -0.09455454 0.094012514 -2.161296 -0.7105924 0.41175726 -1.3814272 0.94223934 -0.013894986 1.8934853 -0.24612188
锐利 -1.3395555 1.9501259 -0.7921475 3.5283518 -1.6508154 -0.70613194 0.66612506 -0.07775261 -0.86116844 -0.27697217 1.1522173 0.28943884 -1.0738393 -0.9821523 1.7072959 -0.71807164 -0.011262714 1.4280037 0.48729938 1.6476318 -2.0918407 -1.1694025 -1.2135069 -0.7602722 -1.3616498 -0.90592384 0.13280365 -0.58422387 -0.5514232 0.7814636 -1.5635744 0.13330014 0.79176277 -1.0063384 0.2707275 0.08858362 1.1330616 -0.45457387 -1.3865854 0.85548794 -0.6014006 0.33402655 0.76979476 -0.14817668 0.5165175 -0.05957903 1.8558531 0.9445906 0.93195826 1.2029347 -0.6234088 -1.5718474 0.03915288 -1.4126661 1.7655789 -0.5136128 0.43101478 -0.51253605 -1.389117 -1.3519527 3.5739124 -0.5616885 -1.5397862 -0.9003439 -1.4362192 -1.3370346 1.2555926 1.3079141 4.2946367 -1.0067967 -0.39382684 -1.4736468 -0.01636681 0.37907213 -0.043544643 1.4092802 1.4030931 1.6415242 -2.690403 0.35093024 1.5253307 -1.557016 -0.7798671 -1.1869998 -0.12144357 -0.41535196 2.810169 0.14809 -0.21400197 1.407777 -0.5616336 -0.19728701 -1.5759472 -0.74065953 1.0158026 -1.0159862 0.71774375 -0.5032886 2.204455 0.20015848
位置 -0.5746778 2.287989 -1.3246582 3.197884 -1.2906513 -1.343358 1.0258983 -0.31419462 -1.1795876 -0.6739427 1.1725236 -1.2857851 -1.0229802 0.6315557 0.7175914 1.9767251 0.3756815 1.806814 0.6504298 1.6178758 -1.6258048 -1.3965002 -1.2902569 0.9005989 -1.0964857 -0.96531373 1.6945544 0.12926927 -0.97120416 0.7838083 -1.4511131 0.69972354 1.0887536 1.0740719 -0.5238743 0.7537147 -0.114347264 -0.7455835 -0.13821301 0.16622818 0.25151488 -0.33359933 1.61789 0.8189377 0.6610088 -0.36472303 3.549438 0.8871136 1.8858529 0.49371022 -1.7901933 -1.6712605 0.3791156 -0.29184294 -0.43447226 -0.8321398 1.0423064 -2.421754 -0.8770426 -1.1217545 4.0647035 -0.29142645 -2.0245612 0.023049973 0.54431903 -1.2172933 1.8967991 2.245176 2.5438035 0.9922232 -0.9418003 -1.834147 -0.9506512 0.004207526 -1.1256875 -0.49258557 0.415615 4.120462 -3.6908965 0.008456758 0.82742524 -2.1987643 -0.729412 -2.1056898 -2.052929 -1.7374107 1.0071455 1.1354604 -1.1666946 2.133309 0.48655352 0.16891217 -2.0075872 -0.6377872 0.013095937 -2.166485 1.1306041 -0.0632339 0.84439576 -0.07694839
两膈 -0.9803503 1.2629347 -1.5618237 1.5605164 -0.3288427 0.14530349 -0.52792805 -0.14809437 -0.62424874 -1.4007319 2.513504 0.3792362 -0.09584524 -0.7727335 1.6992537 0.40503725 -1.7377636 1.6715208 0.66652286 1.0779325 -1.135291 -1.3147854 -1.0538744 -1.4445938 -0.23601924 -0.5761123 0.29289833 -1.9948007 1.5113695 0.32834136 -1.5581689 -0.34624052 0.08488993 -0.9119393 0.90651166 -0.43716434 1.0327896 -0.3135757 -1.4034836 -0.9553459 -0.24455199 -0.430859 0.037262786 -0.33771512 0.32161215 -0.46837887 0.81124115 1.1705297 0.75116 1.1243348 -0.9488799 -1.0087259 0.42747235 -1.4657695 1.7405711 1.8585639 -0.8187688 0.85094076 -1.1532118 -0.74676454 2.8488412 0.9583314 -1.4349885 -0.11134029 -2.2215128 -0.845 1.0134757 -0.046518203 4.929911 -0.027877793 -0.91016424 -0.47694087 -0.8106299 0.37968725 2.0248 0.9011794 0.4298664 0.5914581 -2.0402262 -0.07967589 0.9046433 -2.4993498 0.25696233 -0.7100224 0.6335708 0.28128076 1.8030148 -0.8310022 0.84378886 1.5765468 -0.68497556 0.10430194 -1.1747745 0.056254677 1.7483033 -1.0698973 1.7393672 0.0022707402 3.6699612 -0.8607921
两肺 -0.35139424 1.4520102 -0.35231876 2.5013227 -0.116938904 -1.2187049 0.27102035 0.32339308 -1.2326733 -0.90145093 0.5991332 -1.6641308 -0.3904904 0.6388305 0.14326304 1.8267117 0.28986314 1.8102338 1.003977 0.6564025 -1.0918756 -1.3279383 -1.8143971 2.108754 -0.6703417 -1.2934775 2.0363073 0.039003856 -1.2665073 0.29185557 -1.0598208 1.2754431 1.0011806 1.8743149 -0.6209197 0.9983606 -0.43401575 -1.4148569 0.49500495 -0.6842708 -0.37759423 -0.5290223 0.95041114 0.055650197 0.71856165 -0.13109279 3.7022972 0.779025 1.4589462 -0.20112407 -1.5229678 -1.6184038 0.27548194 -0.29307684 -0.6576412 -2.0064027 0.77844507 -2.3192866 -0.4005889 -1.6689918 3.1014166 -0.95917594 -2.4851918 0.68623936 1.2701523 -1.1121515 2.1129036 1.7325445 0.78216743 1.5698746 -0.56437683 -1.3648068 -0.5678128 0.1845817 -1.2272185 -1.123575 0.28788215 3.6535592 -3.040103 -0.02358124 0.7397573 -1.0064697 -0.23187247 -1.1392126 -1.404382 -1.674216 0.35656184 1.1190253 -1.1352918 1.5226374 0.52153724 0.4964825 -1.729193 -0.15823555 -0.6251137 -1.7885439 1.226913 1.414406 -0.43105212 -0.53989583
心脏 0.0327336 -0.5887996 -0.42068753 0.9861574 -0.88994646 -0.43722066 -0.6616197 0.8383991 -0.45532027 -1.3540943 2.3052351 -0.6107293 -0.6431113 1.4121757 1.8602442 1.9186391 -2.0563486 1.7648681 0.78117025 1.2119626 0.15906622 -1.2546948 -0.9649845 -1.504 1.5515804 -1.3287364 0.68830997 -1.5312504 1.918889 0.6566977 -1.5753423 -0.3998642 0.47820136 0.5343569 -0.3876579 0.19310577 -0.15743555 -0.41278577 -0.46422085 -0.84562397 0.57876176 -1.2431651 0.29148278 0.3170438 0.5214637 0.23304977 1.4266402 1.4001327 2.1688144 0.19013003 -1.3362905 -0.7325201 -0.22683796 -0.8362189 2.6264353 1.8522068 -1.3558795 -0.610187 -1.1996413 -1.3205642 2.8321977 1.470714 -2.6293447 0.7964731 -1.6288218 -0.15852427 2.0319037 0.32366928 2.990822 1.7404125 -1.8052374 -0.1886176 -1.0419772 0.7188621 2.2426698 -0.9547817 -1.1840986 1.4590085 -1.2615113 0.9246239 -0.56428444 -3.35599 0.51833713 -1.984894 0.62797004 0.010496052 0.7970942 0.22339763 0.64469033 1.8850904 -0.88440186 0.93440676 -2.0721996 1.3705939 1.2717786 -1.1274064 3.410892 0.46353227 3.88333 -2.5189304
纹理 -0.82195127 1.7419177 -1.2057008 2.1658225 0.17356251 -0.5866709 0.39303294 -0.666428 -1.3706394 -0.95154905 1.3085192 -1.9180033 0.38505164 0.88798976 -0.17402947 1.6507884 0.75327605 2.2314656 0.653461 0.54168856 -1.7741992 -0.99128056 -2.0397387 1.9588786 -1.1092142 -1.470761 2.3617616 0.36439383 -0.9916835 -0.049235836 -1.6844422 1.6762998 0.41104862 1.6959761 -0.29242045 0.9170063 -0.42740133 -0.7842455 0.42923215 -1.2035441 0.009467427 -0.06027225 1.3151401 0.050540965 0.7802434 -0.19041902 4.034202 0.7180916 1.40314 -0.58406454 -1.0673445 -0.83174044 0.4292851 -1.1217182 -1.1723937 -2.1097555 0.8505137 -2.4043245 -0.4643507 -1.3551072 3.2953656 -0.32780504 -2.0345807 0.76567256 1.4560378 -0.7657887 1.9108561 1.1110076 -0.20869365 1.1535517 -0.11822609 -1.6182842 -0.8800189 0.4523217 -1.7080067 -1.5629557 0.8007345 4.0051765 -3.1694777 -0.43646094 -0.085567854 -1.1996483 -0.49493253 -1.2946253 -1.3319172 -2.4392054 0.21764682 1.1269118 -1.5662715 1.7175124 0.90151614 0.5985157 -1.4736756 -0.90363866 -0.22160842 -1.7799555 0.44450226 1.6481397 -0.98989093 0.17927709
